booster[0]:
0:[f14916<0.018746] yes=1,no=2,missing=1
	1:[f26981<0.0204119] yes=3,no=4,missing=3
		3:[f23025<0.0263902] yes=7,no=8,missing=7
			7:[f14711<0.0346657] yes=15,no=16,missing=15
				15:[f28067<0.00545421] yes=27,no=28,missing=27
					27:[f2065<0.01176] yes=37,no=38,missing=37
						37:leaf=1.26575
						38:leaf=0.477004
					28:[f28112<0.0251494] yes=39,no=40,missing=39
						39:leaf=0.536148
						40:leaf=1.81319
				16:[f22439<0.0169228] yes=29,no=30,missing=29
					29:[f31854<0.0586312] yes=41,no=42,missing=41
						41:leaf=0.191176
						42:leaf=-0.194366
					30:[f3961<0.061439] yes=43,no=44,missing=43
						43:leaf=1.13256
						44:leaf=-0.14094
			8:[f14645<0.0936244] yes=17,no=18,missing=17
				17:[f14643<0.11545] yes=31,no=32,missing=31
					31:[f10779<0.0621705] yes=45,no=46,missing=45
						45:leaf=0.392265
						46:leaf=-0.2
					32:leaf=1.33205
				18:leaf=1.63291
		4:[f20292<0.0161421] yes=9,no=10,missing=9
			9:[f20284<0.0354395] yes=19,no=20,missing=19
				19:[f28067<0.0286776] yes=33,no=34,missing=33
					33:[f14645<0.0936063] yes=47,no=48,missing=47
						47:leaf=0.376172
						48:leaf=1.87889
					34:[f15181<0.0382547] yes=49,no=50,missing=49
						49:leaf=0.124239
						50:leaf=-0.145073
				20:leaf=2.19283
			10:[f25716<0.0704756] yes=21,no=22,missing=21
				21:leaf=2.31754
				22:leaf=0.342282
	2:[f9309<0.0796548] yes=5,no=6,missing=5
		5:[f5767<0.0567398] yes=11,no=12,missing=11
			11:[f14645<0.132031] yes=23,no=24,missing=23
				23:[f4776<0.0961334] yes=35,no=36,missing=35
					35:[f12331<0.129215] yes=51,no=52,missing=51
						51:leaf=-0.0318683
						52:leaf=0.58209
					36:leaf=0.823256
				24:leaf=0.975
			12:leaf=1.06711
		6:[f14711<0.0215552] yes=13,no=14,missing=13
			13:[f24407<0.0420999] yes=25,no=26,missing=25
				25:leaf=1.32911
				26:leaf=0.230769
			14:leaf=-0.164835
booster[1]:
0:[f12316<0.0612368] yes=1,no=2,missing=1
	1:[f22435<0.0482914] yes=3,no=4,missing=3
		3:[f14916<0.018746] yes=7,no=8,missing=7
			7:[f25491<0.104479] yes=15,no=16,missing=15
				15:[f17054<0.0464537] yes=25,no=26,missing=25
					25:[f7821<0.0575457] yes=43,no=44,missing=43
						43:leaf=0.100518
						44:leaf=0.749279
					26:[f28067<0.0461375] yes=45,no=46,missing=45
						45:leaf=1.09668
						46:leaf=0.419036
				16:[f4060<0.0450059] yes=27,no=28,missing=27
					27:[f11206<0.0714493] yes=47,no=48,missing=47
						47:leaf=1.6694
						48:leaf=0.100671
					28:leaf=0.075
			8:[f25491<0.0642915] yes=17,no=18,missing=17
				17:[f2888<0.0543907] yes=29,no=30,missing=29
					29:[f11957<0.182834] yes=49,no=50,missing=49
						49:leaf=0.548432
						50:leaf=1.58206
					30:[f3934<0.0552658] yes=51,no=52,missing=51
						51:leaf=-0.0550982
						52:leaf=0.463415
				18:[f22439<0.0860047] yes=31,no=32,missing=31
					31:[f28067<0.0845945] yes=53,no=54,missing=53
						53:leaf=1.67061
						54:leaf=0.342282
					32:leaf=0.342282
		4:[f16833<0.0268751] yes=9,no=10,missing=9
			9:[f22435<0.142949] yes=19,no=20,missing=19
				19:[f3295<0.0887935] yes=33,no=34,missing=33
					33:[f13814<0.0628563] yes=55,no=56,missing=55
						55:leaf=1.37639
						56:leaf=-0.157895
					34:leaf=-0.170984
				20:[f8320<0.0658082] yes=35,no=36,missing=35
					35:[f4186<0.0242047] yes=57,no=58,missing=57
						57:leaf=2.18565
						58:leaf=0.68421
					36:leaf=0.3
			10:[f655<0.0614275] yes=21,no=22,missing=21
				21:[f27032<0.031594] yes=37,no=38,missing=37
					37:[f30144<0.0582895] yes=59,no=60,missing=59
						59:leaf=0.846501
						60:leaf=-0.157895
					38:leaf=-0.164835
				22:leaf=-0.189873
	2:[f21598<0.0281898] yes=5,no=6,missing=5
		5:[f25491<0.113628] yes=11,no=12,missing=11
			11:[f27032<0.0308369] yes=23,no=24,missing=23
				23:[f18964<0.134039] yes=39,no=40,missing=39
					39:[f11935<0.12537] yes=61,no=62,missing=61
						61:leaf=1.36932
						62:leaf=0.164384
					40:[f12316<0.0895131] yes=63,no=64,missing=63
						63:leaf=-0.15
						64:leaf=0.100671
				24:[f3934<0.00834997] yes=41,no=42,missing=41
					41:leaf=-0.176471
					42:leaf=0.100671
			12:leaf=2.29296
		6:[f3295<0.0352512] yes=13,no=14,missing=13
			13:leaf=-0.193548
			14:leaf=0.100671
booster[2]:
0:[f11935<0.0651981] yes=1,no=2,missing=1
	1:[f11930<0.109791] yes=3,no=4,missing=3
		3:[f11940<0.0302644] yes=7,no=8,missing=7
			7:[f19699<0.0868138] yes=13,no=14,missing=13
				13:[f11417<0.123396] yes=23,no=24,missing=23
					23:[f14884<0.159148] yes=35,no=36,missing=35
						35:leaf=-0.197251
						36:leaf=0.823256
					24:[f2888<0.0727968] yes=37,no=38,missing=37
						37:leaf=0.08915
						38:leaf=1.17722
				14:[f9940<0.0963298] yes=25,no=26,missing=25
					25:[f1200<0.199796] yes=39,no=40,missing=39
						39:leaf=0.026764
						40:leaf=0.990698
					26:leaf=1.25806
			8:[f23025<0.0549546] yes=15,no=16,missing=15
				15:[f16347<0.0473343] yes=27,no=28,missing=27
					27:[f24407<0.0511075] yes=41,no=42,missing=41
						41:leaf=1.26696
						42:leaf=0.100671
					28:leaf=0.153488
				16:leaf=-0.181395
		4:[f19699<0.028577] yes=9,no=10,missing=9
			9:[f4585<0.0225247] yes=17,no=18,missing=17
				17:[f11930<0.151787] yes=29,no=30,missing=29
					29:leaf=0.100671
					30:leaf=0.967742
				18:leaf=-0.14094
			10:leaf=1.7933
	2:[f13153<0.181049] yes=5,no=6,missing=5
		5:[f4186<0.027138] yes=11,no=12,missing=11
			11:[f16833<0.0305033] yes=19,no=20,missing=19
				19:[f23672<0.0287979] yes=31,no=32,missing=31
					31:[f26954<0.0972486] yes=43,no=44,missing=43
						43:leaf=1.58851
						44:leaf=0.176471
					32:leaf=0.176471
				20:[f26981<0.0379203] yes=33,no=34,missing=33
					33:leaf=0.57513
					34:leaf=-0.15
			12:[f655<0.014692] yes=21,no=22,missing=21
				21:leaf=0.342282
				22:leaf=-0.157895
		6:leaf=-0.164835
booster[3]:
0:[f16833<0.0304468] yes=1,no=2,missing=1
	1:[f23672<0.0093623] yes=3,no=4,missing=3
		3:[f16835<0.0483737] yes=7,no=8,missing=7
			7:[f31854<0.012276] yes=15,no=16,missing=15
				15:[f31889<0.0627491] yes=27,no=28,missing=27
					27:[f7828<0.0596047] yes=45,no=46,missing=45
						45:leaf=0.173858
						46:leaf=0.972034
					28:[f23449<0.0775914] yes=47,no=48,missing=47
						47:leaf=1.09817
						48:leaf=0.134328
				16:[f17054<0.053438] yes=29,no=30,missing=29
					29:[f19699<0.0818705] yes=49,no=50,missing=49
						49:leaf=0.984056
						50:leaf=0.309278
					30:leaf=-0.221053
			8:[f27032<0.110746] yes=17,no=18,missing=17
				17:[f11632<0.0668536] yes=31,no=32,missing=31
					31:[f19763<0.0308324] yes=51,no=52,missing=51
						51:leaf=1.56474
						52:leaf=-0.157895
					32:[f11632<0.105554] yes=53,no=54,missing=53
						53:leaf=-0.157895
						54:leaf=0.428571
				18:[f15752<0.0177612] yes=33,no=34,missing=33
					33:leaf=-0.15
					34:leaf=0.100671
		4:[f11632<0.00959529] yes=9,no=10,missing=9
			9:[f22435<0.0367073] yes=19,no=20,missing=19
				19:[f30790<0.0108216] yes=35,no=36,missing=35
					35:[f24376<0.0639973] yes=55,no=56,missing=55
						55:leaf=1.35243
						56:leaf=-1.31481e-09
					36:[f26981<0.0436826] yes=57,no=58,missing=57
						57:leaf=0.951219
						58:leaf=0.0447761
				20:[f22809<0.0709663] yes=37,no=38,missing=37
					37:[f22435<0.105614] yes=59,no=60,missing=59
						59:leaf=-0.0722101
						60:leaf=0.637066
					38:leaf=1.06711
			10:[f1964<0.0168145] yes=21,no=22,missing=21
				21:[f11632<0.0505219] yes=39,no=40,missing=39
					39:leaf=-0.170984
					40:[f12944<0.0521116] yes=61,no=62,missing=61
						61:leaf=0.982063
						62:leaf=-0.14094
				22:leaf=-0.189873
	2:[f27032<0.0622616] yes=5,no=6,missing=5
		5:[f23396<0.0358481] yes=11,no=12,missing=11
			11:[f22437<0.0390063] yes=23,no=24,missing=23
				23:[f4700<0.04554] yes=41,no=42,missing=41
					41:[f14930<0.0227996] yes=63,no=64,missing=63
						63:leaf=1.63808
						64:leaf=0.359073
					42:leaf=-0.14094
				24:leaf=-0.15
			12:leaf=-0.157895
		6:[f27032<0.0823645] yes=13,no=14,missing=13
			13:leaf=-0.202847
			14:[f27032<0.152575] yes=25,no=26,missing=25
				25:[f14915<0.0533924] yes=43,no=44,missing=43
					43:leaf=1.52632
					44:leaf=0.342282
				26:leaf=-0.14094
booster[4]:
0:[f28495<0.0939413] yes=1,no=2,missing=1
	1:[f30540<0.114955] yes=3,no=4,missing=3
		3:[f9584<0.0374541] yes=7,no=8,missing=7
			7:[f16819<0.0229593] yes=13,no=14,missing=13
				13:[f27000<0.155107] yes=23,no=24,missing=23
					23:[f19132<0.0702541] yes=35,no=36,missing=35
						35:leaf=-0.13429
						36:leaf=0.314917
					24:[f3934<0.0592264] yes=37,no=38,missing=37
						37:leaf=-1.31481e-09
						38:leaf=1.61538
				14:leaf=1.6943
			8:[f6882<0.0382489] yes=15,no=16,missing=15
				15:[f23449<0.0590966] yes=25,no=26,missing=25
					25:[f6366<0.099582] yes=39,no=40,missing=39
						39:leaf=-0.0138684
						40:leaf=0.915058
					26:[f14711<0.0382613] yes=41,no=42,missing=41
						41:leaf=0.560912
						42:leaf=-0.09375
				16:[f14916<0.0413261] yes=27,no=28,missing=27
					27:[f5863<0.0204233] yes=43,no=44,missing=43
						43:leaf=0.907749
						44:leaf=-0.189873
					28:[f1200<0.112974] yes=45,no=46,missing=45
						45:leaf=-0.221053
						46:leaf=0.342282
		4:[f6818<0.0375176] yes=9,no=10,missing=9
			9:[f21239<0.0882158] yes=17,no=18,missing=17
				17:[f32086<0.0312125] yes=29,no=30,missing=29
					29:[f20779<0.0657855] yes=47,no=48,missing=47
						47:leaf=0.981917
						48:leaf=-0.15
					30:leaf=-0.157895
				18:[f9833<0.01857] yes=31,no=32,missing=31
					31:leaf=-0.15
					32:leaf=0.100671
			10:[f3934<0.0409516] yes=19,no=20,missing=19
				19:leaf=-0.189873
				20:leaf=0.100671
	2:[f12316<0.0289977] yes=5,no=6,missing=5
		5:[f26201<0.0674991] yes=11,no=12,missing=11
			11:[f9182<0.0271093] yes=21,no=22,missing=21
				21:[f2298<0.0268277] yes=33,no=34,missing=33
					33:[f21239<0.0414841] yes=49,no=50,missing=49
						49:leaf=1.57554
						50:leaf=0.488372
					34:leaf=0.263158
				22:leaf=0.075
			12:leaf=0.0526316
		6:leaf=0.015544
booster[5]:
0:[f15768<0.129969] yes=1,no=2,missing=1
	1:[f23235<0.0303695] yes=3,no=4,missing=3
		3:[f19304<0.0820769] yes=7,no=8,missing=7
			7:[f8131<0.118723] yes=13,no=14,missing=13
				13:[f20866<0.100651] yes=21,no=22,missing=21
					21:[f8172<0.149588] yes=33,no=34,missing=33
						33:leaf=-0.196329
						34:leaf=0.636761
					22:leaf=0.821656
				14:[f23025<0.0450238] yes=23,no=24,missing=23
					23:leaf=1.28025
					24:leaf=0.176471
			8:[f26981<0.0300574] yes=15,no=16,missing=15
				15:[f19304<0.204757] yes=25,no=26,missing=25
					25:[f2065<0.0203626] yes=35,no=36,missing=35
						35:leaf=-0.196911
						36:leaf=0.100671
					26:leaf=0.583893
				16:[f3934<0.0354428] yes=27,no=28,missing=27
					27:[f655<0.0397646] yes=37,no=38,missing=37
						37:leaf=1.2905
						38:leaf=0.263158
					28:leaf=0.100671
		4:[f3295<0.0989355] yes=9,no=10,missing=9
			9:[f2243<0.0630133] yes=17,no=18,missing=17
				17:[f3934<0.027705] yes=29,no=30,missing=29
					29:[f19129<0.043251] yes=39,no=40,missing=39
						39:leaf=0.270083
						40:leaf=-0.172662
					30:[f23235<0.162297] yes=41,no=42,missing=41
						41:leaf=-0.172583
						42:leaf=0.252632
				18:[f21239<0.071022] yes=31,no=32,missing=31
					31:[f23235<0.123551] yes=43,no=44,missing=43
						43:leaf=1.30872
						44:leaf=0.342282
					32:leaf=-0.14094
			10:[f1779<0.0347991] yes=19,no=20,missing=19
				19:leaf=1.07829
				20:leaf=0.100671
	2:[f655<0.01211] yes=5,no=6,missing=5
		5:leaf=1.34731
		6:[f15447<0.0238509] yes=11,no=12,missing=11
			11:leaf=0.57513
			12:leaf=-0.15
booster[6]:
0:[f15320<0.124662] yes=1,no=2,missing=1
	1:[f28254<0.0456224] yes=3,no=4,missing=3
		3:[f8038<0.0563611] yes=7,no=8,missing=7
			7:[f12307<0.130261] yes=13,no=14,missing=13
				13:[f15107<0.146833] yes=23,no=24,missing=23
					23:[f20624<0.0643101] yes=41,no=42,missing=41
						41:leaf=-0.194818
						42:leaf=0.825503
					24:[f14915<0.043778] yes=43,no=44,missing=43
						43:leaf=0.882353
						44:leaf=-1.31481e-09
				14:[f20704<0.0922402] yes=25,no=26,missing=25
					25:[f8564<0.0665163] yes=45,no=46,missing=45
						45:leaf=0.00616016
						46:leaf=0.825503
					26:leaf=0.975
			8:[f9833<0.0323172] yes=15,no=16,missing=15
				15:[f1024<0.021283] yes=27,no=28,missing=27
					27:[f1200<0.0695682] yes=47,no=48,missing=47
						47:leaf=0.819967
						48:leaf=-0.176471
					28:leaf=-0.176471
				16:[f6366<0.0363826] yes=29,no=30,missing=29
					29:leaf=-0.217877
					30:leaf=0.100671
		4:[f28254<0.170243] yes=9,no=10,missing=9
			9:[f26981<0.0192575] yes=17,no=18,missing=17
				17:[f4585<0.0465875] yes=31,no=32,missing=31
					31:[f21239<0.0572921] yes=49,no=50,missing=49
						49:leaf=0.617894
						50:leaf=-0.193548
					32:[f22723<0.0207503] yes=51,no=52,missing=51
						51:leaf=-0.219512
						52:leaf=0.100671
				18:[f1779<0.0943547] yes=33,no=34,missing=33
					33:[f15778<0.0666051] yes=53,no=54,missing=53
						53:leaf=-0.0930299
						54:leaf=0.56962
					34:leaf=0.655814
			10:[f15752<0.029121] yes=19,no=20,missing=19
				19:[f2888<0.0776798] yes=35,no=36,missing=35
					35:[f6818<0.114224] yes=55,no=56,missing=55
						55:leaf=1.2
						56:leaf=0.032967
					36:leaf=-0.170984
				20:[f3934<0.0418874] yes=37,no=38,missing=37
					37:leaf=-0.212308
					38:[f3934<0.0591181] yes=57,no=58,missing=57
						57:leaf=0.825503
						58:leaf=-0.14094
	2:[f19465<0.072636] yes=5,no=6,missing=5
		5:[f30021<0.064773] yes=11,no=12,missing=11
			11:[f1034<0.0260104] yes=21,no=22,missing=21
				21:[f6818<0.0655192] yes=39,no=40,missing=39
					39:leaf=1.66406
					40:leaf=0.428571
				22:leaf=0.3
			12:leaf=0.075
		6:leaf=-0.15
booster[7]:
0:[f26954<0.0603222] yes=1,no=2,missing=1
	1:[f5946<0.130096] yes=3,no=4,missing=3
		3:[f26981<0.0882328] yes=7,no=8,missing=7
			7:[f12972<0.101934] yes=15,no=16,missing=15
				15:[f8951<0.155288] yes=23,no=24,missing=23
					23:[f26010<0.0539105] yes=35,no=36,missing=35
						35:leaf=-0.137294
						36:leaf=1.52632
					24:[f8951<0.254398] yes=37,no=38,missing=37
						37:leaf=1.10941
						38:leaf=0.113208
				16:[f1200<0.0752749] yes=25,no=26,missing=25
					25:[f700<0.0612186] yes=39,no=40,missing=39
						39:leaf=0.783515
						40:leaf=-0.176471
					26:leaf=-0.189873
			8:[f26944<0.0860969] yes=17,no=18,missing=17
				17:[f7845<0.0783195] yes=27,no=28,missing=27
					27:[f26977<0.0487272] yes=41,no=42,missing=41
						41:leaf=0.103469
						42:leaf=1.13471
					28:[f21239<0.030096] yes=43,no=44,missing=43
						43:leaf=1.32911
						44:leaf=0.075
				18:[f30171<0.0259778] yes=29,no=30,missing=29
					29:[f655<0.0434036] yes=45,no=46,missing=45
						45:leaf=1.27916
						46:leaf=0.2
					30:leaf=-0.164835
		4:[f14915<0.0488042] yes=9,no=10,missing=9
			9:leaf=1.74627
			10:leaf=0.525
	2:[f23025<0.10517] yes=5,no=6,missing=5
		5:[f26883<0.023556] yes=11,no=12,missing=11
			11:[f6818<0.0766779] yes=19,no=20,missing=19
				19:[f655<0.0691747] yes=31,no=32,missing=31
					31:[f6366<0.0351618] yes=47,no=48,missing=47
						47:leaf=1.0165
						48:leaf=-0.157895
					32:[f3934<0.0162104] yes=49,no=50,missing=49
						49:leaf=0.58209
						50:leaf=-0.2
				20:[f15752<0.113248] yes=33,no=34,missing=33
					33:[f2132<0.05264] yes=51,no=52,missing=51
						51:leaf=1.74742
						52:leaf=0.342282
					34:leaf=0.292035
			12:[f1964<0.047415] yes=21,no=22,missing=21
				21:leaf=-0.157895
				22:leaf=0.100671
		6:[f13802<0.0519712] yes=13,no=14,missing=13
			13:leaf=-0.193548
			14:leaf=0.342282
booster[8]:
0:[f14042<0.0229299] yes=1,no=2,missing=1
	1:[f17656<0.0889826] yes=3,no=4,missing=3
		3:[f14040<0.0909471] yes=7,no=8,missing=7
			7:[f16257<0.149284] yes=15,no=16,missing=15
				15:[f25555<0.0739104] yes=25,no=26,missing=25
					25:[f8951<0.406428] yes=35,no=36,missing=35
						35:leaf=-0.177394
						36:leaf=0.822581
					26:[f3425<0.0674726] yes=37,no=38,missing=37
						37:leaf=0.0866206
						38:leaf=0.894737
				16:leaf=1.1129
			8:[f31486<0.0177683] yes=17,no=18,missing=17
				17:[f2065<0.0305144] yes=27,no=28,missing=27
					27:[f21239<0.0298732] yes=39,no=40,missing=39
						39:leaf=1.19624
						40:leaf=0.265823
					28:leaf=-0.14094
				18:leaf=-0.189873
		4:[f20704<0.0841002] yes=9,no=10,missing=9
			9:[f15447<0.0228902] yes=19,no=20,missing=19
				19:[f28067<0.0460466] yes=29,no=30,missing=29
					29:[f22439<0.027111] yes=41,no=42,missing=41
						41:leaf=0.561852
						42:leaf=-0.117318
					30:leaf=-0.223881
				20:[f700<0.0207619] yes=31,no=32,missing=31
					31:leaf=-0.242748
					32:leaf=0.100671
			10:[f2888<0.0421928] yes=21,no=22,missing=21
				21:leaf=1.40323
				22:leaf=0.342282
	2:[f22435<0.0522803] yes=5,no=6,missing=5
		5:[f1024<0.021283] yes=11,no=12,missing=11
			11:[f16835<0.0728] yes=23,no=24,missing=23
				23:[f24085<0.0589267] yes=33,no=34,missing=33
					33:leaf=1.8503
					34:leaf=0.3
				24:leaf=0.3
			12:leaf=0.075
		6:[f21239<0.0313319] yes=13,no=14,missing=13
			13:leaf=-0.196911
			14:leaf=0.825503
booster[9]:
0:[f11845<0.121286] yes=1,no=2,missing=1
	1:[f14904<0.127547] yes=3,no=4,missing=3
		3:[f23961<0.134725] yes=7,no=8,missing=7
			7:[f13603<0.260237] yes=13,no=14,missing=13
				13:[f18267<0.278795] yes=21,no=22,missing=21
					21:[f4947<0.149253] yes=29,no=30,missing=29
						29:leaf=-0.16883
						30:leaf=0.505618
					22:[f26981<0.120237] yes=31,no=32,missing=31
						31:leaf=0.263158
						32:leaf=1.06711
				14:[f30021<0.0455555] yes=23,no=24,missing=23
					23:[f21239<0.040322] yes=33,no=34,missing=33
						33:leaf=1.15814
						34:leaf=0.3
					24:leaf=-0.14094
			8:[f8533<0.0401915] yes=15,no=16,missing=15
				15:[f8958<0.0218077] yes=25,no=26,missing=25
					25:[f21239<0.0503621] yes=35,no=36,missing=35
						35:leaf=1
						36:leaf=0.220077
					26:leaf=-0.14094
				16:leaf=-0.189873
		4:[f15752<0.0548878] yes=9,no=10,missing=9
			9:[f23025<0.0397568] yes=17,no=18,missing=17
				17:[f14904<0.208638] yes=27,no=28,missing=27
					27:[f18964<0.0188176] yes=37,no=38,missing=37
						37:leaf=0.347368
						38:leaf=-0.170984
					28:leaf=1
				18:leaf=1.63291
			10:leaf=-0.202847
	2:[f26327<0.0559199] yes=5,no=6,missing=5
		5:[f13153<0.037346] yes=11,no=12,missing=11
			11:[f12026<0.0284039] yes=19,no=20,missing=19
				19:leaf=1.47761
				20:leaf=0.473684
			12:leaf=0.342282
		6:leaf=0.100671
booster[10]:
0:[f22369<0.0986374] yes=1,no=2,missing=1
	1:[f11552<0.213009] yes=3,no=4,missing=3
		3:[f14353<0.0740291] yes=7,no=8,missing=7
			7:[f32564<0.137588] yes=11,no=12,missing=11
				11:[f11552<0.0311835] yes=17,no=18,missing=17
					17:[f11957<0.400075] yes=25,no=26,missing=25
						25:leaf=-0.252582
						26:leaf=0.292035
					18:[f11552<0.10655] yes=27,no=28,missing=27
						27:leaf=0.410959
						28:leaf=-0.156576
				12:leaf=0.488372
			8:[f3934<0.034732] yes=13,no=14,missing=13
				13:[f15181<0.112442] yes=19,no=20,missing=19
					19:[f26981<0.0117613] yes=29,no=30,missing=29
						29:leaf=0.14405
						30:leaf=-0.23741
					20:leaf=0.583893
				14:[f15752<0.0658374] yes=21,no=22,missing=21
					21:[f28067<0.0465733] yes=31,no=32,missing=31
						31:leaf=0.387097
						32:leaf=1.13471
					22:leaf=-0.181395
		4:leaf=0.967742
	2:[f30144<0.0587219] yes=5,no=6,missing=5
		5:[f14915<0.113593] yes=9,no=10,missing=9
			9:[f13153<0.113539] yes=15,no=16,missing=15
				15:[f19631<0.0759612] yes=23,no=24,missing=23
					23:[f1104<0.064974] yes=33,no=34,missing=33
						33:leaf=-0.174194
						34:leaf=0.342282
					24:leaf=0.583893
				16:leaf=0.529412
			10:leaf=0.75
		6:leaf=0.882353
booster[11]:
0:[f27032<0.0623372] yes=1,no=2,missing=1
	1:[f27040<0.119672] yes=3,no=4,missing=3
		3:[f21598<0.0765653] yes=7,no=8,missing=7
			7:[f19905<0.0488317] yes=15,no=16,missing=15
				15:[f29698<0.15287] yes=25,no=26,missing=25
					25:[f8845<0.129333] yes=37,no=38,missing=37
						37:leaf=-0.244818
						38:leaf=0.57513
					26:leaf=0.705882
				16:leaf=0.824176
			8:[f2480<0.100103] yes=17,no=18,missing=17
				17:[f30540<0.0334413] yes=27,no=28,missing=27
					27:[f14904<0.0536025] yes=39,no=40,missing=39
						39:leaf=-0.113968
						40:leaf=0.57513
					28:leaf=0.824176
				18:[f30066<0.0718958] yes=29,no=30,missing=29
					29:leaf=0.0526316
					30:leaf=1.55034
		4:[f6818<0.0445888] yes=9,no=10,missing=9
			9:[f24221<0.0208906] yes=19,no=20,missing=19
				19:leaf=1.57426
				20:leaf=0.342282
			10:leaf=0.032967
	2:[f27032<0.117537] yes=5,no=6,missing=5
		5:[f13315<0.0583527] yes=11,no=12,missing=11
			11:[f1200<0.0215357] yes=21,no=22,missing=21
				21:[f30790<0.0535175] yes=31,no=32,missing=31
					31:[f20672<0.069096] yes=41,no=42,missing=41
						41:leaf=1.27425
						42:leaf=-0.14094
					32:leaf=-0.157895
				22:[f1200<0.0847397] yes=33,no=34,missing=33
					33:leaf=-0.189873
					34:leaf=0.583893
			12:leaf=-0.181395
		6:[f9833<0.0486432] yes=13,no=14,missing=13
			13:[f15752<0.119525] yes=23,no=24,missing=23
				23:[f24221<0.0811779] yes=35,no=36,missing=35
					35:[f2114<0.0670307] yes=43,no=44,missing=43
						43:leaf=2.12009
						44:leaf=0.583893
					36:[f24221<0.12608] yes=45,no=46,missing=45
						45:leaf=0.100671
						46:leaf=0.583893
				24:leaf=0.100671
			14:leaf=0.230769
booster[12]:
0:[f9312<0.0708327] yes=1,no=2,missing=1
	1:[f21239<0.0265183] yes=3,no=4,missing=3
		3:[f14916<0.0193307] yes=7,no=8,missing=7
			7:[f15181<0.0234078] yes=15,no=16,missing=15
				15:[f20704<0.0298406] yes=27,no=28,missing=27
					27:[f28254<0.0585888] yes=43,no=44,missing=43
						43:leaf=0.329886
						44:leaf=-0.0974607
					28:[f10162<0.108882] yes=45,no=46,missing=45
						45:leaf=-0.0337879
						46:leaf=0.559888
				16:[f1964<0.0403886] yes=29,no=30,missing=29
					29:[f28061<0.0793289] yes=47,no=48,missing=47
						47:leaf=0.0939039
						48:leaf=0.909696
					30:[f22610<0.106106] yes=49,no=50,missing=49
						49:leaf=-0.277253
						50:leaf=0.106507
			8:[f28389<0.0893812] yes=17,no=18,missing=17
				17:[f6818<0.294023] yes=31,no=32,missing=31
					31:[f12587<0.139345] yes=51,no=52,missing=51
						51:leaf=0.0114321
						52:leaf=0.759173
					32:[f26981<0.0495819] yes=53,no=54,missing=53
						53:leaf=1.34709
						54:leaf=-0.141309
				18:leaf=0.953834
		4:[f20292<0.0692267] yes=9,no=10,missing=9
			9:[f24221<0.0442657] yes=19,no=20,missing=19
				19:[f15752<0.0262246] yes=33,no=34,missing=33
					33:[f14711<0.0461029] yes=55,no=56,missing=55
						55:leaf=0.168934
						56:leaf=-0.106166
					34:[f30861<0.110629] yes=57,no=58,missing=57
						57:leaf=-0.0362066
						58:leaf=0.51858
				20:[f30022<0.122684] yes=35,no=36,missing=35
					35:[f14186<0.090124] yes=59,no=60,missing=59
						59:leaf=-0.145702
						60:leaf=0.614936
					36:leaf=0.844029
			10:[f26981<0.023705] yes=21,no=22,missing=21
				21:[f24221<0.029277] yes=37,no=38,missing=37
					37:leaf=1.00449
					38:leaf=0.264471
				22:[f9584<0.0791722] yes=39,no=40,missing=39
					39:[f26981<0.163504] yes=61,no=62,missing=61
						61:leaf=0.482887
						62:leaf=0.00516892
					40:leaf=-0.110879
	2:[f13153<0.0434859] yes=5,no=6,missing=5
		5:[f25716<0.043324] yes=11,no=12,missing=11
			11:[f23672<0.0936235] yes=23,no=24,missing=23
				23:[f8564<0.0847921] yes=41,no=42,missing=41
					41:[f20717<0.0210236] yes=63,no=64,missing=63
						63:leaf=0.992534
						64:leaf=0.0826822
					42:leaf=-0.0241408
				24:leaf=-0.18759
			12:[f25716<0.0746057] yes=25,no=26,missing=25
				25:leaf=-0.187163
				26:leaf=0.184325
		6:[f13153<0.0922135] yes=13,no=14,missing=13
			13:leaf=-0.207425
			14:leaf=0.138994
booster[13]:
0:[f15263<0.0503778] yes=1,no=2,missing=1
	1:[f11957<0.0982252] yes=3,no=4,missing=3
		3:[f14916<0.033451] yes=7,no=8,missing=7
			7:[f25491<0.0542526] yes=15,no=16,missing=15
				15:[f17054<0.0640589] yes=25,no=26,missing=25
					25:[f19180<0.163046] yes=41,no=42,missing=41
						41:leaf=0.0894233
						42:leaf=0.866764
					26:[f2065<0.0730877] yes=43,no=44,missing=43
						43:leaf=0.393558
						44:leaf=-0.168755
				16:[f21239<0.070719] yes=27,no=28,missing=27
					27:[f26201<0.0530672] yes=45,no=46,missing=45
						45:leaf=0.346378
						46:leaf=0.701506
					28:[f15181<0.0686372] yes=47,no=48,missing=47
						47:leaf=-0.219863
						48:leaf=0.0634805
			8:[f13153<0.21573] yes=17,no=18,missing=17
				17:[f26318<0.0986382] yes=29,no=30,missing=29
					29:[f7821<0.0551776] yes=49,no=50,missing=49
						49:leaf=0.217948
						50:leaf=0.494184
					30:[f30540<0.0346219] yes=51,no=52,missing=51
						51:leaf=0.835261
						52:leaf=-0.0450102
				18:[f16217<0.0824781] yes=31,no=32,missing=31
					31:[f2132<0.0845405] yes=53,no=54,missing=53
						53:leaf=0.886132
						54:leaf=0.0332291
					32:leaf=-0.158719
		4:[f655<0.0667667] yes=9,no=10,missing=9
			9:[f14915<0.0735576] yes=19,no=20,missing=19
				19:[f12396<0.0586482] yes=33,no=34,missing=33
					33:[f1732<0.0429476] yes=55,no=56,missing=55
						55:leaf=0.378477
						56:leaf=1.11222
					34:leaf=1.0397
				20:[f24407<0.141709] yes=35,no=36,missing=35
					35:[f12316<0.0590823] yes=57,no=58,missing=57
						57:leaf=1.07551
						58:leaf=0.289796
					36:leaf=-0.0231594
			10:[f7023<0.0462104] yes=21,no=22,missing=21
				21:[f12944<0.0174387] yes=37,no=38,missing=37
					37:leaf=-0.256653
					38:[f3934<0.0507346] yes=59,no=60,missing=59
						59:leaf=0.415042
						60:leaf=-0.0786831
				22:leaf=0.572685
	2:[f24065<0.043673] yes=5,no=6,missing=5
		5:[f14746<0.0419775] yes=11,no=12,missing=11
			11:[f19134<0.0354849] yes=23,no=24,missing=23
				23:[f7828<0.098173] yes=39,no=40,missing=39
					39:[f1116<0.0721743] yes=61,no=62,missing=61
						61:leaf=0.673352
						62:leaf=0.00935228
					40:[f2114<0.0985809] yes=63,no=64,missing=63
						63:leaf=-0.195077
						64:leaf=0.207982
				24:leaf=-0.182844
			12:leaf=-0.209311
		6:[f2114<0.0430497] yes=13,no=14,missing=13
			13:leaf=-0.220529
			14:leaf=0.0530318
booster[14]:
0:[f11935<0.0549001] yes=1,no=2,missing=1
	1:[f19699<0.0702682] yes=3,no=4,missing=3
		3:[f12433<0.142963] yes=7,no=8,missing=7
			7:[f5801<0.0722009] yes=15,no=16,missing=15
				15:[f17578<0.17715] yes=31,no=32,missing=31
					31:[f25953<0.110932] yes=55,no=56,missing=55
						55:leaf=-0.172944
						56:leaf=0.951754
					32:[f1104<0.0551349] yes=57,no=58,missing=57
						57:leaf=0.243722
						58:leaf=0.957342
				16:[f2065<0.0460531] yes=33,no=34,missing=33
					33:[f15951<0.0200773] yes=59,no=60,missing=59
						59:leaf=0.576597
						60:leaf=-0.0711945
					34:leaf=-0.226442
			8:[f21239<0.0119813] yes=17,no=18,missing=17
				17:[f8822<0.12769] yes=35,no=36,missing=35
					35:[f23235<0.0269027] yes=61,no=62,missing=61
						61:leaf=-0.219498
						62:leaf=0.104173
					36:leaf=0.571006
				18:[f3007<0.0428399] yes=37,no=38,missing=37
					37:leaf=1.20555
					38:leaf=0.337002
		4:[f21239<0.0670698] yes=9,no=10,missing=9
			9:[f28665<0.208373] yes=19,no=20,missing=19
				19:[f2549<0.107229] yes=39,no=40,missing=39
					39:[f27635<0.0914246] yes=63,no=64,missing=63
						63:leaf=-0.0515383
						64:leaf=0.6643
					40:leaf=0.768644
				20:leaf=0.856496
			10:[f15951<0.00798416] yes=21,no=22,missing=21
				21:[f30144<0.0333295] yes=41,no=42,missing=41
					41:[f22723<0.0399918] yes=65,no=66,missing=65
						65:leaf=0.790874
						66:leaf=-0.0698135
					42:[f15752<0.128925] yes=67,no=68,missing=67
						67:leaf=-0.21124
						68:leaf=0.25995
				22:[f15752<0.0495584] yes=43,no=44,missing=43
					43:leaf=-0.2285
					44:leaf=0.329447
	2:[f2132<0.0183461] yes=5,no=6,missing=5
		5:[f19699<0.111766] yes=11,no=12,missing=11
			11:[f11898<0.115358] yes=23,no=24,missing=23
				23:[f4556<0.0331139] yes=45,no=46,missing=45
					45:[f11957<0.0598989] yes=69,no=70,missing=69
						69:leaf=0.387377
						70:leaf=-0.0913429
					46:leaf=-0.237719
				24:leaf=-0.253803
			12:[f8145<0.0327797] yes=25,no=26,missing=25
				25:[f3574<0.111746] yes=47,no=48,missing=47
					47:[f30790<0.0673185] yes=71,no=72,missing=71
						71:leaf=0.741908
						72:leaf=0.226049
					48:leaf=0.165771
				26:leaf=0.10301
		6:[f11935<0.147705] yes=13,no=14,missing=13
			13:[f19699<0.0193957] yes=27,no=28,missing=27
				27:[f8533<0.0720743] yes=49,no=50,missing=49
					49:leaf=-0.290608
					50:leaf=0.059225
				28:[f11935<0.0756796] yes=51,no=52,missing=51
					51:leaf=-0.195602
					52:[f15778<0.030325] yes=73,no=74,missing=73
						73:leaf=0.317703
						74:leaf=-0.0040726
			14:[f30066<0.0216426] yes=29,no=30,missing=29
				29:[f8822<0.0846459] yes=53,no=54,missing=53
					53:leaf=0.596915
					54:leaf=0.163429
				30:leaf=0.0277249
booster[15]:
0:[f21598<0.0733239] yes=1,no=2,missing=1
	1:[f13814<0.118542] yes=3,no=4,missing=3
		3:[f15447<0.0500859] yes=7,no=8,missing=7
			7:[f21239<0.0694447] yes=15,no=16,missing=15
				15:[f14680<0.0199952] yes=29,no=30,missing=29
					29:[f15449<0.0318692] yes=49,no=50,missing=49
						49:leaf=0.112201
						50:leaf=0.925392
					30:[f24221<0.00923904] yes=51,no=52,missing=51
						51:leaf=0.54456
						52:leaf=1.59971
				16:[f7196<0.100079] yes=31,no=32,missing=31
					31:[f15661<0.109612] yes=53,no=54,missing=53
						53:leaf=0.27048
						54:leaf=0.966068
					32:[f6818<0.049315] yes=55,no=56,missing=55
						55:leaf=1.03726
						56:leaf=0.0194295
			8:[f12316<0.0796048] yes=17,no=18,missing=17
				17:[f8172<0.0825883] yes=33,no=34,missing=33
					33:[f23236<0.0439185] yes=57,no=58,missing=57
						57:leaf=0.382916
						58:leaf=0.69452
					34:[f8172<0.15971] yes=59,no=60,missing=59
						59:leaf=-0.241308
						60:leaf=0.0131573
				18:[f21239<0.0310906] yes=35,no=36,missing=35
					35:leaf=-0.264068
					36:[f13153<0.0533372] yes=61,no=62,missing=61
						61:leaf=0.401739
						62:leaf=-0.0130408
		4:[f8533<0.0219839] yes=9,no=10,missing=9
			9:[f14904<0.0942464] yes=19,no=20,missing=19
				19:[f13593<0.0377914] yes=37,no=38,missing=37
					37:[f2298<0.0624794] yes=63,no=64,missing=63
						63:leaf=0.961368
						64:leaf=-0.149503
					38:leaf=-0.161219
				20:leaf=-0.184109
			10:[f6818<0.0338678] yes=21,no=22,missing=21
				21:[f30021<0.0247712] yes=39,no=40,missing=39
					39:[f23236<0.0295692] yes=65,no=66,missing=65
						65:leaf=0.664452
						66:leaf=0.0395698
					40:leaf=-0.176897
				22:leaf=-0.216239
	2:[f19129<0.0526173] yes=5,no=6,missing=5
		5:[f700<0.0159123] yes=11,no=12,missing=11
			11:[f19699<0.0727216] yes=23,no=24,missing=23
				23:[f20289<0.0461641] yes=41,no=42,missing=41
					41:[f23672<0.0188113] yes=67,no=68,missing=67
						67:leaf=1.02204
						68:leaf=0.496129
					42:leaf=-0.162935
				24:[f1964<0.0895246] yes=43,no=44,missing=43
					43:leaf=-0.177188
					44:leaf=0.278211
			12:[f31486<0.0419781] yes=25,no=26,missing=25
				25:[f1964<0.0195436] yes=45,no=46,missing=45
					45:leaf=-0.206166
					46:leaf=0.0916779
				26:leaf=0.512482
		6:[f18964<0.0540923] yes=13,no=14,missing=13
			13:[f15752<0.0553331] yes=27,no=28,missing=27
				27:[f28067<0.017237] yes=47,no=48,missing=47
					47:leaf=0.0706507
					48:leaf=-0.248998
				28:leaf=0.313615
			14:leaf=0.589552
booster[16]:
0:[f30381<0.0655428] yes=1,no=2,missing=1
	1:[f23451<0.0694298] yes=3,no=4,missing=3
		3:[f25756<0.0342902] yes=7,no=8,missing=7
			7:[f6882<0.0561443] yes=15,no=16,missing=15
				15:[f26475<0.129832] yes=25,no=26,missing=25
					25:[f6616<0.117518] yes=45,no=46,missing=45
						45:leaf=-0.106914
						46:leaf=0.615986
					26:[f15951<0.0600496] yes=47,no=48,missing=47
						47:leaf=0.597493
						48:leaf=-0.11719
				16:[f6818<0.0501865] yes=27,no=28,missing=27
					27:[f14916<0.0596061] yes=49,no=50,missing=49
						49:leaf=0.277991
						50:leaf=-0.179572
					28:[f31954<0.06359] yes=51,no=52,missing=51
						51:leaf=-0.245458
						52:leaf=0.0947141
			8:[f3233<0.0722736] yes=17,no=18,missing=17
				17:[f15733<0.123282] yes=29,no=30,missing=29
					29:[f112<0.0757238] yes=53,no=54,missing=53
						53:leaf=0.0756381
						54:leaf=1.02768
					30:[f21239<0.0321711] yes=55,no=56,missing=55
						55:leaf=0.280806
						56:leaf=1.13533
				18:[f28067<0.0295343] yes=31,no=32,missing=31
					31:leaf=0.0864719
					32:leaf=1.22701
		4:[f14916<0.015398] yes=9,no=10,missing=9
			9:[f2888<0.0945878] yes=19,no=20,missing=19
				19:[f2382<0.0869272] yes=33,no=34,missing=33
					33:[f857<0.0648557] yes=57,no=58,missing=57
						57:leaf=0.207706
						58:leaf=0.873662
					34:leaf=0.888834
				20:[f23451<0.209107] yes=35,no=36,missing=35
					35:[f2888<0.127772] yes=59,no=60,missing=59
						59:leaf=0.341121
						60:leaf=0.0711966
					36:leaf=1.36685
			10:[f24407<0.0626969] yes=21,no=22,missing=21
				21:[f31486<0.0634935] yes=37,no=38,missing=37
					37:leaf=-0.25346
					38:leaf=0.320957
				22:[f9584<0.0938016] yes=39,no=40,missing=39
					39:leaf=-0.146047
					40:[f26981<0.0277507] yes=61,no=62,missing=61
						61:leaf=0.0985443
						62:leaf=0.726382
	2:[f14915<0.0448696] yes=5,no=6,missing=5
		5:[f13259<0.0562636] yes=11,no=12,missing=11
			11:[f8533<0.0498998] yes=23,no=24,missing=23
				23:[f20704<0.049968] yes=41,no=42,missing=41
					41:[f26327<0.0666078] yes=63,no=64,missing=63
						63:leaf=0.79053
						64:leaf=-0.16921
					42:[f14916<0.0382675] yes=65,no=66,missing=65
						65:leaf=-0.172479
						66:leaf=0.115016
				24:[f14285<0.0223019] yes=43,no=44,missing=43
					43:leaf=-0.186733
					44:leaf=0.0995108
			12:leaf=-0.206675
		6:[f30381<0.136054] yes=13,no=14,missing=13
			13:leaf=-0.235114
			14:leaf=0.490368
booster[17]:
0:[f23235<0.0303695] yes=1,no=2,missing=1
	1:[f8172<0.107588] yes=3,no=4,missing=3
		3:[f15768<0.067542] yes=7,no=8,missing=7
			7:[f26883<0.0391662] yes=15,no=16,missing=15
				15:[f20870<0.196316] yes=29,no=30,missing=29
					29:[f11289<0.112441] yes=47,no=48,missing=47
						47:leaf=-0.173712
						48:leaf=0.69574
					30:leaf=0.931027
				16:[f28665<0.107627] yes=31,no=32,missing=31
					31:[f1705<0.0882822] yes=49,no=50,missing=49
						49:leaf=0.0242385
						50:leaf=0.77933
					32:leaf=1.02959
			8:[f26981<0.0716178] yes=17,no=18,missing=17
				17:[f30021<0.0293883] yes=33,no=34,missing=33
					33:[f28067<0.0356797] yes=51,no=52,missing=51
						51:leaf=0.444647
						52:leaf=-0.178662
					34:leaf=0.91725
				18:[f30021<0.0656471] yes=35,no=36,missing=35
					35:[f14915<0.0532104] yes=53,no=54,missing=53
						53:leaf=-0.217109
						54:leaf=0.105611
					36:leaf=0.271075
		4:[f655<0.0442103] yes=9,no=10,missing=9
			9:[f1104<0.0563131] yes=19,no=20,missing=19
				19:[f30144<0.0580071] yes=37,no=38,missing=37
					37:[f14634<0.0729982] yes=55,no=56,missing=55
						55:leaf=0.689599
						56:leaf=0.0205302
					38:leaf=-0.153702
				20:leaf=-0.154957
			10:leaf=-0.176107
	2:[f23235<0.153809] yes=5,no=6,missing=5
		5:[f30861<0.0575615] yes=11,no=12,missing=11
			11:[f30068<0.0722512] yes=21,no=22,missing=21
				21:[f20674<0.0481318] yes=39,no=40,missing=39
					39:[f19846<0.0720367] yes=57,no=58,missing=57
						57:leaf=-0.0498579
						58:leaf=0.541199
					40:leaf=0.677525
				22:[f23235<0.0697202] yes=41,no=42,missing=41
					41:leaf=0.102425
					42:leaf=0.744781
			12:[f15752<0.0633361] yes=23,no=24,missing=23
				23:[f2065<0.0469293] yes=43,no=44,missing=43
					43:leaf=0.689208
					44:leaf=0.020098
				24:leaf=-0.135327
		6:[f24407<0.0288744] yes=13,no=14,missing=13
			13:[f30790<0.0263361] yes=25,no=26,missing=25
				25:[f26201<0.0247443] yes=45,no=46,missing=45
					45:[f30021<0.0438365] yes=59,no=60,missing=59
						59:leaf=0.94699
						60:leaf=0.0307921
					46:leaf=-0.156766
				26:leaf=-0.162615
			14:[f3295<0.0757498] yes=27,no=28,missing=27
				27:leaf=-0.221804
				28:leaf=0.526515
booster[18]:
0:[f28254<0.0456224] yes=1,no=2,missing=1
	1:[f15320<0.112671] yes=3,no=4,missing=3
		3:[f24208<0.0700184] yes=7,no=8,missing=7
			7:[f24060<0.0462206] yes=15,no=16,missing=15
				15:[f27552<0.180064] yes=23,no=24,missing=23
					23:[f750<0.0442611] yes=33,no=34,missing=33
						33:leaf=-0.166011
						34:leaf=0.532477
					24:leaf=0.817312
				16:[f6818<0.0498672] yes=25,no=26,missing=25
					25:[f2888<0.0399352] yes=35,no=36,missing=35
						35:leaf=-0.186433
						36:leaf=0.577096
					26:leaf=1.05925
			8:[f28665<0.0655566] yes=17,no=18,missing=17
				17:[f4060<0.0860324] yes=27,no=28,missing=27
					27:[f21239<0.0133944] yes=37,no=38,missing=37
						37:leaf=0.175382
						38:leaf=-0.2154
					28:leaf=0.587897
				18:leaf=1.01193
		4:[f20655<0.0362996] yes=9,no=10,missing=9
			9:[f17656<0.0561022] yes=19,no=20,missing=19
				19:[f22439<0.0700877] yes=29,no=30,missing=29
					29:[f3295<0.0571387] yes=39,no=40,missing=39
						39:leaf=0.549782
						40:leaf=0.0289274
					30:leaf=0.00747503
				20:leaf=-0.183107
			10:leaf=-0.209214
	2:[f8038<0.0904723] yes=5,no=6,missing=5
		5:[f12316<0.0406576] yes=11,no=12,missing=11
			11:[f8235<0.0729013] yes=21,no=22,missing=21
				21:[f11669<0.075701] yes=31,no=32,missing=31
					31:[f2888<0.0367351] yes=41,no=42,missing=41
						41:leaf=0.158096
						42:leaf=-0.145611
					32:[f6818<0.0588403] yes=43,no=44,missing=43
						43:leaf=0.900187
						44:leaf=0.0420492
				22:leaf=0.813376
			12:leaf=-0.251749
		6:[f28254<0.122205] yes=13,no=14,missing=13
			13:leaf=0.240747
			14:leaf=0.902202
booster[19]:
0:[f26954<0.0535744] yes=1,no=2,missing=1
	1:[f26981<0.0586696] yes=3,no=4,missing=3
		3:[f2114<0.0638588] yes=7,no=8,missing=7
			7:[f12972<0.0907213] yes=15,no=16,missing=15
				15:[f8951<0.073669] yes=31,no=32,missing=31
					31:[f15775<0.0949934] yes=53,no=54,missing=53
						53:leaf=-0.137071
						54:leaf=0.813997
					32:[f12507<0.0410668] yes=55,no=56,missing=55
						55:leaf=0.17449
						56:leaf=1.0594
				16:[f26426<0.0699141] yes=33,no=34,missing=33
					33:[f11613<0.0248862] yes=57,no=58,missing=57
						57:leaf=0.468626
						58:leaf=-0.21276
					34:leaf=-0.215462
			8:[f3773<0.024076] yes=17,no=18,missing=17
				17:[f24276<0.0409907] yes=35,no=36,missing=35
					35:[f6882<0.0700719] yes=59,no=60,missing=59
						59:leaf=0.0929167
						60:leaf=0.694052
					36:leaf=0.847254
				18:leaf=0.928286
		4:[f8951<0.0890904] yes=9,no=10,missing=9
			9:[f12746<0.0802899] yes=19,no=20,missing=19
				19:[f21273<0.109607] yes=37,no=38,missing=37
					37:[f15775<0.0833164] yes=61,no=62,missing=61
						61:leaf=0.0389114
						62:leaf=0.738342
					38:[f14915<0.0608244] yes=63,no=64,missing=63
						63:leaf=0.967866
						64:leaf=-0.15119
				20:[f1104<0.03877] yes=39,no=40,missing=39
					39:[f655<0.0367144] yes=65,no=66,missing=65
						65:leaf=1.07563
						66:leaf=0.221891
					40:[f28067<0.044952] yes=67,no=68,missing=67
						67:leaf=-0.176407
						68:leaf=0.345084
			10:[f14915<0.0868742] yes=21,no=22,missing=21
				21:[f15752<0.0152956] yes=41,no=42,missing=41
					41:[f14915<0.0210081] yes=69,no=70,missing=69
						69:leaf=0.251992
						70:leaf=0.736315
					42:[f28067<0.0414712] yes=71,no=72,missing=71
						71:leaf=1.37471
						72:leaf=0.308206
				22:leaf=-0.139822
	2:[f2888<0.0395717] yes=5,no=6,missing=5
		5:[f26944<0.077712] yes=11,no=12,missing=11
			11:[f8958<0.0427775] yes=23,no=24,missing=23
				23:[f23236<0.074953] yes=43,no=44,missing=43
					43:[f23972<0.0822031] yes=73,no=74,missing=73
						73:leaf=0.271011
						74:leaf=0.779367
					44:[f12360<0.0287634] yes=75,no=76,missing=75
						75:leaf=-0.239847
						76:leaf=0.099209
				24:[f30171<0.0234441] yes=45,no=46,missing=45
					45:[f30790<0.0558192] yes=77,no=78,missing=77
						77:leaf=-0.267719
						78:leaf=0.108278
					46:leaf=0.503568
			12:[f12409<0.0777983] yes=25,no=26,missing=25
				25:[f3934<0.0630427] yes=47,no=48,missing=47
					47:[f4585<0.0455645] yes=79,no=80,missing=79
						79:leaf=0.886711
						80:leaf=0.143842
					48:[f3934<0.0923022] yes=81,no=82,missing=81
						81:leaf=-0.018745
						82:leaf=0.0878911
				26:leaf=-0.195159
		6:[f12017<0.0706335] yes=13,no=14,missing=13
			13:[f24407<0.0302928] yes=27,no=28,missing=27
				27:[f22723<0.0478342] yes=49,no=50,missing=49
					49:[f15181<0.0232991] yes=83,no=84,missing=83
						83:leaf=0.537956
						84:leaf=0.0287223
					50:leaf=-0.16748
				28:[f13259<0.0536047] yes=51,no=52,missing=51
					51:[f24135<0.0614178] yes=85,no=86,missing=85
						85:leaf=1.10515
						86:leaf=0.232618
					52:leaf=0.178004
			14:[f6818<0.0500215] yes=29,no=30,missing=29
				29:leaf=-0.155237
				30:leaf=0.184426
booster[20]:
0:[f17656<0.0566078] yes=1,no=2,missing=1
	1:[f14040<0.0549443] yes=3,no=4,missing=3
		3:[f16433<0.3083] yes=7,no=8,missing=7
			7:[f14784<0.237516] yes=15,no=16,missing=15
				15:[f14042<0.0758377] yes=27,no=28,missing=27
					27:[f18786<0.0532196] yes=39,no=40,missing=39
						39:leaf=-0.145374
						40:leaf=0.591942
					28:[f28067<0.0324207] yes=41,no=42,missing=41
						41:leaf=0.130386
						42:leaf=0.551808
				16:leaf=1.0393
			8:leaf=0.827854
		4:[f14989<0.0320833] yes=9,no=10,missing=9
			9:[f14916<0.0400247] yes=17,no=18,missing=17
				17:[f26981<0.0283593] yes=29,no=30,missing=29
					29:[f2888<0.0224244] yes=43,no=44,missing=43
						43:leaf=0.45804
						44:leaf=-0.162007
					30:[f23672<0.0328924] yes=45,no=46,missing=45
						45:leaf=-0.181709
						46:leaf=0.347398
				18:[f16217<0.0343677] yes=31,no=32,missing=31
					31:leaf=0.606996
					32:leaf=0.075504
			10:[f9584<0.0330726] yes=19,no=20,missing=19
				19:[f19631<0.0842468] yes=33,no=34,missing=33
					33:[f31277<0.0112432] yes=47,no=48,missing=47
						47:leaf=0.879634
						48:leaf=0.262742
					34:leaf=0.201455
				20:leaf=0.0708185
	2:[f15447<0.0228902] yes=5,no=6,missing=5
		5:[f16347<0.021118] yes=11,no=12,missing=11
			11:[f14042<0.0229299] yes=21,no=22,missing=21
				21:[f655<0.0311856] yes=35,no=36,missing=35
					35:[f24221<0.0133254] yes=49,no=50,missing=49
						49:leaf=0.315192
						50:leaf=-0.15669
					36:[f8584<0.0746761] yes=51,no=52,missing=51
						51:leaf=-0.181925
						52:leaf=0.408817
				22:leaf=0.68748
			12:[f28067<0.0310076] yes=23,no=24,missing=23
				23:[f26981<0.0795517] yes=37,no=38,missing=37
					37:[f23158<0.0539173] yes=53,no=54,missing=53
						53:leaf=1.19383
						54:leaf=0.310406
					38:leaf=0.0946991
				24:leaf=0.0308509
		6:[f3965<0.0642907] yes=13,no=14,missing=13
			13:[f9833<0.0843467] yes=25,no=26,missing=25
				25:leaf=-0.246859
				26:leaf=0.11367
			14:leaf=0.597489
booster[21]:
0:[f11845<0.0790562] yes=1,no=2,missing=1
	1:[f6818<0.0634431] yes=3,no=4,missing=3
		3:[f23449<0.0954956] yes=7,no=8,missing=7
			7:[f4947<0.0957408] yes=15,no=16,missing=15
				15:[f30790<0.189247] yes=23,no=24,missing=23
					23:[f19505<0.102824] yes=39,no=40,missing=39
						39:leaf=-0.167552
						40:leaf=0.231011
					24:[f22723<0.0203131] yes=41,no=42,missing=41
						41:leaf=0.0337991
						42:leaf=1.07182
				16:[f30066<0.0204342] yes=25,no=26,missing=25
					25:[f14916<0.0796714] yes=43,no=44,missing=43
						43:leaf=0.529467
						44:leaf=-0.0381577
					26:leaf=-0.176052
			8:[f11388<0.0231183] yes=17,no=18,missing=17
				17:[f24407<0.0971916] yes=27,no=28,missing=27
					27:[f3961<0.0643749] yes=45,no=46,missing=45
						45:leaf=-0.0569667
						46:leaf=0.50438
					28:[f2132<0.0628764] yes=47,no=48,missing=47
						47:leaf=0.137444
						48:leaf=0.842523
				18:[f2132<0.0388384] yes=29,no=30,missing=29
					29:[f700<0.0444887] yes=49,no=50,missing=49
						49:leaf=1.13376
						50:leaf=0.104975
					30:leaf=-0.153308
		4:[f31164<0.0998902] yes=9,no=10,missing=9
			9:[f14904<0.120183] yes=19,no=20,missing=19
				19:[f1785<0.135245] yes=31,no=32,missing=31
					31:[f29243<0.116249] yes=51,no=52,missing=51
						51:leaf=-0.0300349
						52:leaf=0.823365
					32:leaf=0.729317
				20:[f19129<0.0851835] yes=33,no=34,missing=33
					33:leaf=0.701315
					34:leaf=-0.155602
			10:leaf=0.859767
	2:[f4060<0.0207265] yes=5,no=6,missing=5
		5:[f11845<0.130656] yes=11,no=12,missing=11
			11:leaf=-0.226809
			12:[f14916<0.0434104] yes=21,no=22,missing=21
				21:[f19503<0.0423098] yes=35,no=36,missing=35
					35:[f11206<0.17845] yes=53,no=54,missing=53
						53:leaf=0.583407
						54:leaf=0.0680551
					36:leaf=0.00746127
				22:[f22723<0.0761866] yes=37,no=38,missing=37
					37:leaf=-0.20546
					38:leaf=0.0831599
		6:[f655<0.0610484] yes=13,no=14,missing=13
			13:leaf=0.994119
			14:leaf=0.271823
booster[22]:
0:[f22369<0.0715183] yes=1,no=2,missing=1
	1:[f14353<0.0740291] yes=3,no=4,missing=3
		3:[f11552<0.0311835] yes=7,no=8,missing=7
			7:[f32564<0.210641] yes=13,no=14,missing=13
				13:[f22360<0.237165] yes=23,no=24,missing=23
					23:[f16993<0.149319] yes=33,no=34,missing=33
						33:leaf=-0.240904
						34:leaf=0.215697
					24:leaf=0.324844
				14:leaf=0.468445
			8:[f14916<0.0550948] yes=15,no=16,missing=15
				15:[f13802<0.0204734] yes=25,no=26,missing=25
					25:[f1200<0.042876] yes=35,no=36,missing=35
						35:leaf=0.564476
						36:leaf=-0.1474
					26:leaf=-0.19162
				16:leaf=-0.198695
		4:[f14916<0.0502286] yes=9,no=10,missing=9
			9:[f655<0.0137943] yes=17,no=18,missing=17
				17:[f22723<0.0666112] yes=27,no=28,missing=27
					27:leaf=-0.242302
					28:[f4585<0.0462678] yes=37,no=38,missing=37
						37:leaf=0.0831166
						38:leaf=0.348992
				18:[f11613<0.0381867] yes=29,no=30,missing=29
					29:[f22470<0.0338285] yes=39,no=40,missing=39
						39:leaf=-0.0871244
						40:leaf=0.575169
					30:leaf=0.819842
			10:[f16217<0.0608378] yes=19,no=20,missing=19
				19:leaf=0.768488
				20:leaf=-0.144954
	2:[f1200<0.0585476] yes=5,no=6,missing=5
		5:[f22369<0.269926] yes=11,no=12,missing=11
			11:[f26883<0.033267] yes=21,no=22,missing=21
				21:[f22369<0.141024] yes=31,no=32,missing=31
					31:[f22369<0.0986374] yes=41,no=42,missing=41
						41:leaf=-0.218906
						42:leaf=0.315368
					32:[f25716<0.0883613] yes=43,no=44,missing=43
						43:leaf=-0.237174
						44:leaf=0.11234
				22:leaf=0.575184
			12:leaf=0.642163
		6:leaf=0.750688
booster[23]:
0:[f27032<0.0661864] yes=1,no=2,missing=1
	1:[f27040<0.0796987] yes=3,no=4,missing=3
		3:[f21598<0.050996] yes=7,no=8,missing=7
			7:[f19895<0.10392] yes=15,no=16,missing=15
				15:[f14868<0.0728782] yes=25,no=26,missing=25
					25:[f20593<0.156061] yes=41,no=42,missing=41
						41:leaf=-0.233071
						42:leaf=0.601094
					26:[f22723<0.0192198] yes=43,no=44,missing=43
						43:leaf=-0.0368469
						44:leaf=0.993473
				16:[f655<0.0273781] yes=27,no=28,missing=27
					27:leaf=0.993333
					28:leaf=0.0999409
			8:[f23672<0.0381642] yes=17,no=18,missing=17
				17:[f655<0.0565724] yes=29,no=30,missing=29
					29:[f12396<0.0531023] yes=45,no=46,missing=45
						45:leaf=-0.148525
						46:leaf=0.560468
					30:[f15752<0.0265338] yes=47,no=48,missing=47
						47:leaf=0.560416
						48:leaf=-0.182978
				18:[f20704<0.0578267] yes=31,no=32,missing=31
					31:[f14915<0.0272385] yes=49,no=50,missing=49
						49:leaf=0.842656
						50:leaf=-0.140345
					32:leaf=-0.150058
		4:[f22439<0.0417473] yes=9,no=10,missing=9
			9:[f16347<0.0441764] yes=19,no=20,missing=19
				19:[f4585<0.0474256] yes=33,no=34,missing=33
					33:[f18618<0.03008] yes=51,no=52,missing=51
						51:leaf=0.871876
						52:leaf=0.041469
					34:leaf=-0.150378
				20:leaf=-0.180444
			10:leaf=-0.219133
	2:[f2132<0.0496865] yes=5,no=6,missing=5
		5:[f11632<0.048988] yes=11,no=12,missing=11
			11:[f11669<0.205607] yes=21,no=22,missing=21
				21:[f20489<0.0621948] yes=35,no=36,missing=35
					35:[f6334<0.100815] yes=53,no=54,missing=53
						53:leaf=0.500444
						54:leaf=-0.221982
					36:[f9842<0.0457084] yes=55,no=56,missing=55
						55:leaf=-0.222223
						56:leaf=0.0458342
				22:leaf=-0.232878
			12:[f3934<0.0359432] yes=23,no=24,missing=23
				23:[f13371<0.0339319] yes=37,no=38,missing=37
					37:leaf=-0.263283
					38:leaf=0.243415
				24:[f26981<0.0551744] yes=39,no=40,missing=39
					39:leaf=0.0153443
					40:leaf=0.416121
		6:[f655<0.0183341] yes=13,no=14,missing=13
			13:leaf=-0.252932
			14:leaf=0.29378
booster[24]:
0:[f28112<0.0181089] yes=1,no=2,missing=1
	1:[f2114<0.0306197] yes=3,no=4,missing=3
		3:[f23025<0.0267775] yes=7,no=8,missing=7
			7:[f14643<0.0926284] yes=13,no=14,missing=13
				13:[f20297<0.0691427] yes=23,no=24,missing=23
					23:[f31854<0.012565] yes=39,no=40,missing=39
						39:leaf=0.154912
						40:leaf=-0.118841
					24:[f1200<0.0238292] yes=41,no=42,missing=41
						41:leaf=0.798056
						42:leaf=0.24168
				14:[f26981<0.0761488] yes=25,no=26,missing=25
					25:[f13814<0.0290939] yes=43,no=44,missing=43
						43:leaf=0.609353
						44:leaf=-0.22166
					26:[f14643<0.15305] yes=45,no=46,missing=45
						45:leaf=-0.19447
						46:leaf=0.0250671
			8:[f26981<0.0202732] yes=15,no=16,missing=15
				15:[f10683<0.109329] yes=27,no=28,missing=27
					27:[f11503<0.0699171] yes=47,no=48,missing=47
						47:leaf=0.0771856
						48:leaf=0.597262
					28:leaf=1.08258
				16:[f20116<0.0826515] yes=29,no=30,missing=29
					29:[f15953<0.0571612] yes=49,no=50,missing=49
						49:leaf=-0.0513337
						50:leaf=0.242721
					30:[f9584<0.0175667] yes=51,no=52,missing=51
						51:leaf=0.0197051
						52:leaf=1.22993
		4:[f13259<0.0717696] yes=9,no=10,missing=9
			9:[f16347<0.0650018] yes=17,no=18,missing=17
				17:[f8031<0.0593672] yes=31,no=32,missing=31
					31:[f4776<0.0491916] yes=53,no=54,missing=53
						53:leaf=-0.188503
						54:leaf=0.286734
					32:leaf=0.418528
				18:[f9833<0.0326093] yes=33,no=34,missing=33
					33:[f13153<0.0203889] yes=55,no=56,missing=55
						55:leaf=0.63481
						56:leaf=-0.151795
					34:[f8840<0.0632398] yes=57,no=58,missing=57
						57:leaf=-0.241535
						58:leaf=0.0922078
			10:[f23025<0.0398896] yes=19,no=20,missing=19
				19:[f655<0.0418219] yes=35,no=36,missing=35
					35:[f1104<0.0561944] yes=59,no=60,missing=59
						59:leaf=-0.210664
						60:leaf=0.0737549
					36:leaf=0.30803
				20:leaf=0.830604
	2:[f25773<0.0513576] yes=5,no=6,missing=5
		5:[f20284<0.0265201] yes=11,no=12,missing=11
			11:[f20292<0.0755227] yes=21,no=22,missing=21
				21:[f12703<0.0159969] yes=37,no=38,missing=37
					37:[f26981<0.0194671] yes=61,no=62,missing=61
						61:leaf=0.66597
						62:leaf=1.29101
					38:leaf=0.290829
				22:leaf=0.561608
			12:leaf=0.462414
		6:leaf=0.0761016
booster[25]:
0:[f22435<0.0534784] yes=1,no=2,missing=1
	1:[f2114<0.0846712] yes=3,no=4,missing=3
		3:[f15263<0.0503778] yes=7,no=8,missing=7
			7:[f7821<0.0605689] yes=15,no=16,missing=15
				15:[f12051<0.205004] yes=25,no=26,missing=25
					25:[f12316<0.0284626] yes=43,no=44,missing=43
						43:leaf=0.0519255
						44:leaf=0.185261
					26:[f26201<0.0265832] yes=45,no=46,missing=45
						45:leaf=0.370176
						46:leaf=1.14876
				16:[f19129<0.0560633] yes=27,no=28,missing=27
					27:[f7828<0.0735766] yes=47,no=48,missing=47
						47:leaf=0.327657
						48:leaf=0.004615
					28:[f22723<0.0772012] yes=49,no=50,missing=49
						49:leaf=-0.190942
						50:leaf=0.446536
			8:[f15263<0.175585] yes=17,no=18,missing=17
				17:[f1062<0.059115] yes=29,no=30,missing=29
					29:[f3109<0.0289316] yes=51,no=52,missing=51
						51:leaf=0.312967
						52:leaf=-0.16234
					30:[f23025<0.0626447] yes=53,no=54,missing=53
						53:leaf=-0.265152
						54:leaf=0.0866059
				18:[f17054<0.0305037] yes=31,no=32,missing=31
					31:[f31954<0.0689775] yes=55,no=56,missing=55
						55:leaf=0.681587
						56:leaf=-0.02083
					32:[f14915<0.0177413] yes=57,no=58,missing=57
						57:leaf=0.143743
						58:leaf=-0.0502352
		4:[f26954<0.079968] yes=9,no=10,missing=9
			9:[f24407<0.0884403] yes=19,no=20,missing=19
				19:[f19631<0.0603659] yes=33,no=34,missing=33
					33:[f4183<0.0957034] yes=59,no=60,missing=59
						59:leaf=0.381271
						60:leaf=-0.220082
					34:leaf=0.967073
				20:[f14711<0.0695556] yes=35,no=36,missing=35
					35:[f8564<0.0776691] yes=61,no=62,missing=61
						61:leaf=-0.273542
						62:leaf=0.250199
					36:leaf=0.559734
			10:[f14916<0.0586017] yes=21,no=22,missing=21
				21:leaf=-0.244579
				22:[f22723<0.0370692] yes=37,no=38,missing=37
					37:leaf=0.0826422
					38:leaf=0.344495
	2:[f15687<0.0726982] yes=5,no=6,missing=5
		5:[f29821<0.0443645] yes=11,no=12,missing=11
			11:[f11935<0.0420249] yes=23,no=24,missing=23
				23:[f23885<0.0974752] yes=39,no=40,missing=39
					39:[f26883<0.104366] yes=63,no=64,missing=63
						63:leaf=0.306899
						64:leaf=-0.231888
					40:[f23885<0.147483] yes=65,no=66,missing=65
						65:leaf=-0.318198
						66:leaf=0.277678
				24:[f9584<0.110307] yes=41,no=42,missing=41
					41:leaf=-0.269834
					42:leaf=0.267697
			12:leaf=-0.272322
		6:[f15447<0.106058] yes=13,no=14,missing=13
			13:leaf=-0.279212
			14:leaf=0.155157
booster[26]:
0:[f11935<0.0644441] yes=1,no=2,missing=1
	1:[f11930<0.0762354] yes=3,no=4,missing=3
		3:[f19699<0.0435514] yes=7,no=8,missing=7
			7:[f4032<0.0762262] yes=13,no=14,missing=13
				13:[f19582<0.0834786] yes=21,no=22,missing=21
					21:[f24725<0.110014] yes=35,no=36,missing=35
						35:leaf=-0.154889
						36:leaf=0.862726
					22:[f2888<0.0193629] yes=37,no=38,missing=37
						37:leaf=0.967085
						38:leaf=0.0995201
				14:[f4032<0.0929767] yes=23,no=24,missing=23
					23:[f15181<0.020322] yes=39,no=40,missing=39
						39:leaf=1.17767
						40:leaf=0.310762
					24:[f30171<0.0583981] yes=41,no=42,missing=41
						41:leaf=-0.134297
						42:leaf=0.613366
			8:[f4022<0.0556973] yes=15,no=16,missing=15
				15:[f21105<0.121454] yes=25,no=26,missing=25
					25:[f30223<0.0776725] yes=43,no=44,missing=43
						43:leaf=-0.0249444
						44:leaf=0.566551
					26:leaf=0.934729
				16:[f18125<0.027008] yes=27,no=28,missing=27
					27:[f655<0.0741549] yes=45,no=46,missing=45
						45:leaf=-0.0271958
						46:leaf=0.45021
					28:leaf=1.07208
		4:[f1062<0.0278689] yes=9,no=10,missing=9
			9:[f7821<0.0654225] yes=17,no=18,missing=17
				17:[f24221<0.0816355] yes=29,no=30,missing=29
					29:[f1964<0.0848799] yes=47,no=48,missing=47
						47:leaf=0.594496
						48:leaf=0.0280296
					30:leaf=0.027348
				18:leaf=-0.0198703
			10:leaf=-0.180421
	2:[f28818<0.0815328] yes=5,no=6,missing=5
		5:[f7196<0.0772842] yes=11,no=12,missing=11
			11:[f14285<0.101021] yes=19,no=20,missing=19
				19:[f15661<0.0760012] yes=31,no=32,missing=31
					31:[f11632<0.143688] yes=49,no=50,missing=49
						49:leaf=0.286169
						50:leaf=-0.150713
					32:leaf=-0.226024
				20:[f16347<0.0251261] yes=33,no=34,missing=33
					33:leaf=-0.247647
					34:leaf=0.0170802
			12:leaf=-0.227533
		6:leaf=-0.273744
booster[27]:
0:[f23236<0.056802] yes=1,no=2,missing=1
	1:[f4630<0.066686] yes=3,no=4,missing=3
		3:[f11204<0.0834458] yes=7,no=8,missing=7
			7:[f31854<0.115031] yes=15,no=16,missing=15
				15:[f13153<0.0318094] yes=27,no=28,missing=27
					27:[f23672<0.0093623] yes=49,no=50,missing=49
						49:leaf=0.0472734
						50:leaf=0.217337
					28:[f4232<0.0504052] yes=51,no=52,missing=51
						51:leaf=0.178491
						52:leaf=0.569021
				16:[f28665<0.0636826] yes=29,no=30,missing=29
					29:[f15181<0.0592914] yes=53,no=54,missing=53
						53:leaf=0.465927
						54:leaf=0.0702809
					30:[f6818<0.114511] yes=55,no=56,missing=55
						55:leaf=-0.162725
						56:leaf=0.279737
			8:[f655<0.0304235] yes=17,no=18,missing=17
				17:[f5936<0.0336995] yes=31,no=32,missing=31
					31:[f30022<0.0619306] yes=57,no=58,missing=57
						57:leaf=0.997723
						58:leaf=0.0319319
					32:leaf=0.01268
				18:[f8320<0.0365567] yes=33,no=34,missing=33
					33:[f30144<0.0217471] yes=59,no=60,missing=59
						59:leaf=-0.0100243
						60:leaf=0.432358
					34:leaf=0.722616
		4:[f22439<0.0579419] yes=9,no=10,missing=9
			9:[f13153<0.0401822] yes=19,no=20,missing=19
				19:[f25716<0.0500552] yes=35,no=36,missing=35
					35:[f16217<0.0704088] yes=61,no=62,missing=61
						61:leaf=0.893889
						62:leaf=0.131742
					36:[f15752<0.048879] yes=63,no=64,missing=63
						63:leaf=-0.0686707
						64:leaf=0.359322
				20:[f29194<0.0290917] yes=37,no=38,missing=37
					37:[f30021<0.0417004] yes=65,no=66,missing=65
						65:leaf=0.412782
						66:leaf=0.0285373
					38:leaf=-0.1935
			10:leaf=-0.185709
	2:[f20704<0.0663869] yes=5,no=6,missing=5
		5:[f14831<0.0793356] yes=11,no=12,missing=11
			11:[f857<0.0629685] yes=21,no=22,missing=21
				21:[f1200<0.121027] yes=39,no=40,missing=39
					39:[f14164<0.0576082] yes=67,no=68,missing=67
						67:leaf=0.244602
						68:leaf=-0.0238375
					40:leaf=-0.261752
				22:[f14285<0.061437] yes=41,no=42,missing=41
					41:leaf=0.911341
					42:leaf=-0.00924882
			12:[f11185<0.0960488] yes=23,no=24,missing=23
				23:[f10480<0.060926] yes=43,no=44,missing=43
					43:[f2888<0.0649172] yes=69,no=70,missing=69
						69:leaf=1.0494
						70:leaf=0.248775
					44:leaf=0.0527195
				24:leaf=0.0162723
		6:[f20717<0.0762344] yes=13,no=14,missing=13
			13:[f22610<0.0738934] yes=25,no=26,missing=25
				25:[f8533<0.0481292] yes=45,no=46,missing=45
					45:[f30486<0.0530667] yes=71,no=72,missing=71
						71:leaf=0.776331
						72:leaf=0.0165523
					46:[f3934<0.0190506] yes=73,no=74,missing=73
						73:leaf=0.262861
						74:leaf=-0.160917
				26:[f23236<0.0878936] yes=47,no=48,missing=47
					47:leaf=-0.074087
					48:leaf=0.26541
			14:leaf=-0.156841
booster[28]:
0:[f30540<0.0295324] yes=1,no=2,missing=1
	1:[f9881<0.0803314] yes=3,no=4,missing=3
		3:[f9584<0.0623278] yes=7,no=8,missing=7
			7:[f28495<0.0775175] yes=15,no=16,missing=15
				15:[f30021<0.0372319] yes=31,no=32,missing=31
					31:[f7988<0.0463306] yes=49,no=50,missing=49
						49:leaf=-0.112402
						50:leaf=1.01553
					32:[f25756<0.0700443] yes=51,no=52,missing=51
						51:leaf=0.0136835
						52:leaf=0.471426
				16:[f9833<0.0495933] yes=33,no=34,missing=33
					33:[f4585<0.0552161] yes=53,no=54,missing=53
						53:leaf=0.540114
						54:leaf=0.0824352
					34:leaf=-0.212483
			8:[f26981<0.0474588] yes=17,no=18,missing=17
				17:[f15181<0.0471678] yes=35,no=36,missing=35
					35:[f19129<0.0786233] yes=55,no=56,missing=55
						55:leaf=0.164358
						56:leaf=0.53307
					36:[f21239<0.0853433] yes=57,no=58,missing=57
						57:leaf=-0.203228
						58:leaf=0.291653
				18:[f8144<0.0773192] yes=37,no=38,missing=37
					37:[f23106<0.0242703] yes=59,no=60,missing=59
						59:leaf=-0.098923
						60:leaf=0.611433
					38:[f30144<0.0212925] yes=61,no=62,missing=61
						61:leaf=0.726619
						62:leaf=0.088836
		4:[f24407<0.0511828] yes=9,no=10,missing=9
			9:[f15181<0.0201811] yes=19,no=20,missing=19
				19:[f9881<0.150504] yes=39,no=40,missing=39
					39:[f30144<0.0503815] yes=63,no=64,missing=63
						63:leaf=1.18253
						64:leaf=0.226954
					40:leaf=0.16546
				20:leaf=-0.154841
			10:[f9584<0.0468293] yes=21,no=22,missing=21
				21:leaf=-0.181377
				22:leaf=0.0919907
	2:[f25555<0.0292423] yes=5,no=6,missing=5
		5:[f14915<0.0441712] yes=11,no=12,missing=11
			11:[f6882<0.0585606] yes=23,no=24,missing=23
				23:[f30540<0.129248] yes=41,no=42,missing=41
					41:[f4585<0.0627844] yes=65,no=66,missing=65
						65:leaf=-0.131682
						66:leaf=0.284495
					42:[f13315<0.0187505] yes=67,no=68,missing=67
						67:leaf=0.311314
						68:leaf=-0.210589
				24:[f9833<0.0374452] yes=43,no=44,missing=43
					43:leaf=0.676765
					44:leaf=0.0359135
			12:[f19699<0.0165302] yes=25,no=26,missing=25
				25:[f14916<0.0490958] yes=45,no=46,missing=45
					45:[f18964<0.0175442] yes=69,no=70,missing=69
						69:leaf=0.903982
						70:leaf=0.0847138
					46:[f26981<0.0344079] yes=71,no=72,missing=71
						71:leaf=-0.149526
						72:leaf=0.104431
				26:leaf=-0.178193
		6:[f30021<0.0354047] yes=13,no=14,missing=13
			13:[f30022<0.0480985] yes=27,no=28,missing=27
				27:[f1104<0.0533117] yes=47,no=48,missing=47
					47:leaf=1.41527
					48:leaf=0.311548
				28:leaf=0.151284
			14:[f7140<0.0538575] yes=29,no=30,missing=29
				29:leaf=-0.183924
				30:leaf=0.305473
booster[29]:
0:[f23235<0.0303695] yes=1,no=2,missing=1
	1:[f8131<0.0840467] yes=3,no=4,missing=3
		3:[f19304<0.0820769] yes=7,no=8,missing=7
			7:[f15768<0.067542] yes=15,no=16,missing=15
				15:[f9123<0.0699326] yes=27,no=28,missing=27
					27:[f21311<0.0689068] yes=47,no=48,missing=47
						47:leaf=-0.156292
						48:leaf=0.546727
					28:[f14711<0.0545083] yes=49,no=50,missing=49
						49:leaf=0.0642625
						50:leaf=0.741403
				16:[f12409<0.0591381] yes=29,no=30,missing=29
					29:[f655<0.027275] yes=51,no=52,missing=51
						51:leaf=0.391165
						52:leaf=-0.0150095
					30:leaf=-0.232819
			8:[f22610<0.0276474] yes=17,no=18,missing=17
				17:[f15071<0.0642696] yes=31,no=32,missing=31
					31:[f12316<0.0702692] yes=53,no=54,missing=53
						53:leaf=0.482874
						54:leaf=-0.156566
					32:[f3295<0.0915477] yes=55,no=56,missing=55
						55:leaf=-0.158521
						56:leaf=0.0844271
				18:leaf=-0.183062
		4:[f19026<0.0271471] yes=9,no=10,missing=9
			9:[f1964<0.0598127] yes=19,no=20,missing=19
				19:[f13802<0.0389773] yes=33,no=34,missing=33
					33:[f19699<0.0493213] yes=57,no=58,missing=57
						57:leaf=0.807775
						58:leaf=0.0421756
					34:[f26981<0.0248562] yes=59,no=60,missing=59
						59:leaf=-0.151141
						60:leaf=0.105341
				20:[f8172<0.0541243] yes=35,no=36,missing=35
					35:leaf=-0.144241
					36:leaf=0.03718
			10:leaf=-0.161333
	2:[f24407<0.0348662] yes=5,no=6,missing=5
		5:[f15768<0.0809316] yes=11,no=12,missing=11
			11:[f8142<0.0378515] yes=21,no=22,missing=21
				21:[f26201<0.0484803] yes=37,no=38,missing=37
					37:[f30021<0.0239325] yes=61,no=62,missing=61
						61:leaf=0.277829
						62:leaf=-0.000605464
					38:[f28818<0.0356053] yes=63,no=64,missing=63
						63:leaf=-0.224101
						64:leaf=0.100022
				22:[f3295<0.0482847] yes=39,no=40,missing=39
					39:leaf=-0.243084
					40:leaf=0.2506
			12:leaf=0.612641
		6:[f30791<0.0393409] yes=13,no=14,missing=13
			13:[f11491<0.0391163] yes=23,no=24,missing=23
				23:[f19054<0.105952] yes=41,no=42,missing=41
					41:[f11613<0.0346127] yes=65,no=66,missing=65
						65:leaf=-0.25956
						66:leaf=0.114987
					42:leaf=0.34256
				24:leaf=0.352479
			14:[f2888<0.0158445] yes=25,no=26,missing=25
				25:[f6818<0.0184009] yes=43,no=44,missing=43
					43:leaf=-0.164699
					44:leaf=0.0865745
				26:[f30144<0.0785845] yes=45,no=46,missing=45
					45:leaf=0.436223
					46:leaf=0.00735758
booster[30]:
0:[f28254<0.0456224] yes=1,no=2,missing=1
	1:[f15320<0.0635904] yes=3,no=4,missing=3
		3:[f7845<0.153457] yes=7,no=8,missing=7
			7:[f12307<0.130261] yes=15,no=16,missing=15
				15:[f8038<0.0563611] yes=27,no=28,missing=27
					27:[f16021<0.036848] yes=39,no=40,missing=39
						39:leaf=-0.152875
						40:leaf=0.134156
					28:[f30066<0.0421278] yes=41,no=42,missing=41
						41:leaf=0.306962
						42:leaf=-0.21525
				16:[f24407<0.0104746] yes=29,no=30,missing=29
					29:[f12433<0.0391689] yes=43,no=44,missing=43
						43:leaf=0.490817
						44:leaf=-0.144128
					30:[f24221<0.0814422] yes=45,no=46,missing=45
						45:leaf=-0.210089
						46:leaf=0.104993
			8:[f7845<0.196807] yes=17,no=18,missing=17
				17:leaf=1.02686
				18:leaf=0.0900744
		4:[f26981<0.0254432] yes=9,no=10,missing=9
			9:[f19465<0.0501005] yes=19,no=20,missing=19
				19:[f30144<0.0383005] yes=31,no=32,missing=31
					31:[f18964<0.0774118] yes=47,no=48,missing=47
						47:leaf=0.58696
						48:leaf=0.0132353
					32:[f1034<0.0285775] yes=49,no=50,missing=49
						49:leaf=0.199469
						50:leaf=-0.149873
				20:leaf=-0.175859
			10:[f15320<0.18397] yes=21,no=22,missing=21
				21:[f30171<0.0462554] yes=33,no=34,missing=33
					33:[f8564<0.055265] yes=51,no=52,missing=51
						51:leaf=-0.262109
						52:leaf=0.0634018
					34:leaf=0.342561
				22:leaf=0.408656
	2:[f26981<0.159795] yes=5,no=6,missing=5
		5:[f21239<0.0710696] yes=11,no=12,missing=11
			11:[f28067<0.064292] yes=23,no=24,missing=23
				23:[f25756<0.105126] yes=35,no=36,missing=35
					35:[f12026<0.0774245] yes=53,no=54,missing=53
						53:leaf=0.0632953
						54:leaf=0.556809
					36:leaf=0.71987
				24:[f19129<0.0250762] yes=37,no=38,missing=37
					37:[f8564<0.0789858] yes=55,no=56,missing=55
						55:leaf=0.566963
						56:leaf=-0.152906
					38:[f28067<0.143549] yes=57,no=58,missing=57
						57:leaf=-0.181566
						58:leaf=0.0975283
			12:[f1761<0.061167] yes=25,no=26,missing=25
				25:leaf=-0.245109
				26:leaf=0.334053
		6:[f7244<0.103678] yes=13,no=14,missing=13
			13:leaf=-0.258287
			14:leaf=0.0978791
booster[31]:
0:[f26981<0.0638663] yes=1,no=2,missing=1
	1:[f26954<0.0551332] yes=3,no=4,missing=3
		3:[f27090<0.0668836] yes=7,no=8,missing=7
			7:[f26078<0.0713121] yes=15,no=16,missing=15
				15:[f2114<0.0609032] yes=31,no=32,missing=31
					31:[f30708<0.0523681] yes=49,no=50,missing=49
						49:leaf=-0.10598
						50:leaf=0.43894
					32:[f18618<0.079579] yes=51,no=52,missing=51
						51:leaf=0.115549
						52:leaf=1.04113
				16:leaf=1.1914
			8:[f12944<0.036528] yes=17,no=18,missing=17
				17:[f1024<0.0228549] yes=33,no=34,missing=33
					33:[f700<0.0408083] yes=53,no=54,missing=53
						53:leaf=0.913792
						54:leaf=-0.0270535
					34:leaf=-0.163432
				18:[f4585<0.0484648] yes=35,no=36,missing=35
					35:leaf=-0.17489
					36:leaf=0.0322779
		4:[f32593<0.072694] yes=9,no=10,missing=9
			9:[f25716<0.0642094] yes=19,no=20,missing=19
				19:[f28665<0.0534305] yes=37,no=38,missing=37
					37:[f30066<0.0406248] yes=55,no=56,missing=55
						55:leaf=0.0674042
						56:leaf=0.340717
					38:[f5925<0.15539] yes=57,no=58,missing=57
						57:leaf=0.458873
						58:leaf=-0.168672
				20:leaf=-0.246668
			10:[f700<0.0419814] yes=21,no=22,missing=21
				21:leaf=0.647888
				22:leaf=0.0526659
	2:[f26954<0.0686488] yes=5,no=6,missing=5
		5:[f1919<0.055934] yes=11,no=12,missing=11
			11:[f13224<0.0825838] yes=23,no=24,missing=23
				23:[f10189<0.0392425] yes=39,no=40,missing=39
					39:[f26078<0.0496617] yes=59,no=60,missing=59
						59:leaf=0.0399664
						60:leaf=0.752972
					40:leaf=0.852984
				24:[f12409<0.0305073] yes=41,no=42,missing=41
					41:[f2065<0.0537176] yes=61,no=62,missing=61
						61:leaf=1.08888
						62:leaf=0.307511
					42:leaf=0.0518236
			12:[f24407<0.0307957] yes=25,no=26,missing=25
				25:[f28067<0.0543181] yes=43,no=44,missing=43
					43:[f21239<0.0570737] yes=63,no=64,missing=63
						63:leaf=1.25629
						64:leaf=0.109651
					44:[f6818<0.0567922] yes=65,no=66,missing=65
						65:leaf=-0.110848
						66:leaf=0.518086
				26:[f12944<0.0474713] yes=45,no=46,missing=45
					45:[f30021<0.0682169] yes=67,no=68,missing=67
						67:leaf=-0.211542
						68:leaf=0.111726
					46:leaf=0.305147
		6:[f16217<0.0746074] yes=13,no=14,missing=13
			13:[f30022<0.0841513] yes=27,no=28,missing=27
				27:[f1612<0.0932373] yes=47,no=48,missing=47
					47:[f23887<0.103604] yes=69,no=70,missing=69
						69:leaf=0.373816
						70:leaf=-0.199244
					48:leaf=-0.216167
				28:leaf=-0.205655
			14:[f14285<0.0811495] yes=29,no=30,missing=29
				29:leaf=-0.246564
				30:leaf=0.10742
booster[32]:
0:[f17656<0.0782199] yes=1,no=2,missing=1
	1:[f14040<0.0549443] yes=3,no=4,missing=3
		3:[f25555<0.0739104] yes=7,no=8,missing=7
			7:[f18174<0.145345] yes=15,no=16,missing=15
				15:[f5249<0.139777] yes=25,no=26,missing=25
					25:[f29054<0.172138] yes=35,no=36,missing=35
						35:leaf=-0.124943
						36:leaf=0.67407
					26:leaf=1.00737
				16:[f14916<0.0469743] yes=27,no=28,missing=27
					27:[f15752<0.0152956] yes=37,no=38,missing=37
						37:leaf=0.247092
						38:leaf=-0.154729
					28:leaf=0.872325
			8:[f24376<0.0962326] yes=17,no=18,missing=17
				17:[f15181<0.0446683] yes=29,no=30,missing=29
					29:[f15800<0.0190883] yes=39,no=40,missing=39
						39:leaf=-0.0316197
						40:leaf=0.535024
					30:[f28067<0.0369234] yes=41,no=42,missing=41
						41:leaf=0.623735
						42:leaf=0.0641205
				18:leaf=0.871765
		4:[f4060<0.0172581] yes=9,no=10,missing=9
			9:[f2065<0.0419066] yes=19,no=20,missing=19
				19:[f11613<0.0631398] yes=31,no=32,missing=31
					31:[f6818<0.0386655] yes=43,no=44,missing=43
						43:leaf=0.413777
						44:leaf=-0.0263662
					32:leaf=-0.151348
				20:leaf=-0.170235
			10:leaf=-0.198177
	2:[f15447<0.0228902] yes=5,no=6,missing=5
		5:[f4183<0.0507136] yes=11,no=12,missing=11
			11:[f16433<0.155967] yes=21,no=22,missing=21
				21:[f18618<0.0295976] yes=33,no=34,missing=33
					33:[f3003<0.0136192] yes=45,no=46,missing=45
						45:leaf=0.0809025
						46:leaf=0.559609
					34:leaf=0.624154
				22:leaf=0.719551
			12:[f23025<0.0309408] yes=23,no=24,missing=23
				23:leaf=0.058825
				24:leaf=0.887255
		6:[f8145<0.0206314] yes=13,no=14,missing=13
			13:leaf=-0.22602
			14:leaf=0.113901
booster[33]:
0:[f6818<0.106756] yes=1,no=2,missing=1
	1:[f26658<0.0898819] yes=3,no=4,missing=3
		3:[f13603<0.0705031] yes=7,no=8,missing=7
			7:[f14904<0.127547] yes=13,no=14,missing=13
				13:[f11654<0.12922] yes=25,no=26,missing=25
					25:[f14711<0.0780361] yes=35,no=36,missing=35
						35:leaf=-0.141207
						36:leaf=0.0618702
					26:leaf=0.958938
				14:[f1104<0.0351777] yes=27,no=28,missing=27
					27:[f30021<0.0611509] yes=37,no=38,missing=37
						37:leaf=0.397594
						38:leaf=-0.0764083
					28:leaf=-0.199089
			8:[f8479<0.0202513] yes=15,no=16,missing=15
				15:[f4585<0.0301081] yes=29,no=30,missing=29
					29:[f14916<0.08632] yes=39,no=40,missing=39
						39:leaf=0.643564
						40:leaf=-0.160418
					30:[f15752<0.0426295] yes=41,no=42,missing=41
						41:leaf=-0.203797
						42:leaf=0.336706
				16:leaf=-0.198074
		4:[f26981<0.0265504] yes=9,no=10,missing=9
			9:[f3934<0.0461252] yes=17,no=18,missing=17
				17:leaf=1.2396
				18:leaf=0.110398
			10:[f6818<0.0207506] yes=19,no=20,missing=19
				19:[f13802<0.0558203] yes=31,no=32,missing=31
					31:leaf=-0.204539
					32:leaf=0.114378
				20:leaf=0.60175
	2:[f13402<0.0991274] yes=5,no=6,missing=5
		5:[f17054<0.0717872] yes=11,no=12,missing=11
			11:[f19604<0.205299] yes=21,no=22,missing=21
				21:[f12906<0.148084] yes=33,no=34,missing=33
					33:[f13814<0.0804406] yes=43,no=44,missing=43
						43:leaf=-0.00633999
						44:leaf=0.411313
					34:leaf=0.841355
				22:leaf=0.835221
			12:[f15181<0.0448127] yes=23,no=24,missing=23
				23:leaf=0.117059
				24:leaf=1.00646
		6:leaf=0.91651
booster[34]:
0:[f22369<0.0715183] yes=1,no=2,missing=1
	1:[f14353<0.0740291] yes=3,no=4,missing=3
		3:[f11552<0.0311835] yes=7,no=8,missing=7
			7:[f32564<0.137588] yes=15,no=16,missing=15
				15:[f22360<0.125252] yes=27,no=28,missing=27
					27:[f16565<0.0975605] yes=41,no=42,missing=41
						41:leaf=-0.231872
						42:leaf=0.194377
					28:[f19699<0.0677992] yes=43,no=44,missing=43
						43:leaf=-0.0315045
						44:leaf=0.470372
				16:[f2888<0.0212889] yes=29,no=30,missing=29
					29:leaf=0.0301425
					30:leaf=0.410993
			8:[f24407<0.0851128] yes=17,no=18,missing=17
				17:[f11632<0.0238667] yes=31,no=32,missing=31
					31:[f12224<0.0591994] yes=45,no=46,missing=45
						45:leaf=-0.131471
						46:leaf=0.3394
					32:leaf=0.501268
				18:leaf=0.419033
		4:[f6818<0.0587996] yes=9,no=10,missing=9
			9:[f14634<0.0232702] yes=19,no=20,missing=19
				19:[f18964<0.0768823] yes=33,no=34,missing=33
					33:[f1104<0.0449547] yes=47,no=48,missing=47
						47:leaf=0.359751
						48:leaf=-0.0582422
					34:leaf=-0.159783
				20:leaf=-0.186909
			10:leaf=-0.208559
	2:[f14916<0.0165482] yes=5,no=6,missing=5
		5:[f26981<0.0325661] yes=11,no=12,missing=11
			11:[f15752<0.0313813] yes=21,no=22,missing=21
				21:[f15181<0.0201586] yes=35,no=36,missing=35
					35:[f19465<0.0647587] yes=49,no=50,missing=49
						49:leaf=0.513965
						50:leaf=0.060143
					36:leaf=0.0826578
				22:[f23025<0.0252818] yes=37,no=38,missing=37
					37:leaf=-0.146275
					38:leaf=0.0972971
			12:[f13153<0.11403] yes=23,no=24,missing=23
				23:leaf=-0.24095
				24:leaf=0.30676
		6:[f19465<0.0475295] yes=13,no=14,missing=13
			13:[f9584<0.0354614] yes=25,no=26,missing=25
				25:[f14916<0.0638909] yes=39,no=40,missing=39
					39:leaf=0.699872
					40:leaf=0.156662
				26:leaf=-0.00760136
			14:leaf=-0.154893
booster[35]:
0:[f27032<0.0526215] yes=1,no=2,missing=1
	1:[f27040<0.0796987] yes=3,no=4,missing=3
		3:[f21598<0.050996] yes=7,no=8,missing=7
			7:[f29698<0.201433] yes=15,no=16,missing=15
				15:[f19905<0.0488317] yes=25,no=26,missing=25
					25:[f20664<0.121805] yes=33,no=34,missing=33
						33:leaf=-0.21849
						34:leaf=0.658985
					26:[f26981<0.0101732] yes=35,no=36,missing=35
						35:leaf=0.0769607
						36:leaf=0.746537
				16:leaf=0.729898
			8:[f9584<0.0112574] yes=17,no=18,missing=17
				17:[f3934<0.0647513] yes=27,no=28,missing=27
					27:[f3934<0.0296924] yes=37,no=38,missing=37
						37:leaf=0.0743169
						38:leaf=0.534221
					28:[f26981<0.167568] yes=39,no=40,missing=39
						39:leaf=-0.227894
						40:leaf=0.0978299
				18:leaf=-0.23242
		4:[f22439<0.0397014] yes=9,no=10,missing=9
			9:[f12026<0.029441] yes=19,no=20,missing=19
				19:[f24407<0.0474555] yes=29,no=30,missing=29
					29:[f2515<0.034192] yes=41,no=42,missing=41
						41:leaf=0.536454
						42:leaf=0.131506
					30:[f12944<0.0754772] yes=43,no=44,missing=43
						43:leaf=-0.180076
						44:leaf=0.356785
				20:leaf=-0.171932
			10:leaf=-0.198755
	2:[f10360<0.0625938] yes=5,no=6,missing=5
		5:[f8497<0.062917] yes=11,no=12,missing=11
			11:[f20755<0.0163387] yes=21,no=22,missing=21
				21:[f17656<0.0917481] yes=31,no=32,missing=31
					31:[f6606<0.0571852] yes=45,no=46,missing=45
						45:leaf=0.327218
						46:leaf=-0.186089
					32:[f27032<0.139103] yes=47,no=48,missing=47
						47:leaf=-0.218398
						48:leaf=-0.0438453
				22:leaf=-0.212708
			12:[f15447<0.0640078] yes=23,no=24,missing=23
				23:leaf=-0.238994
				24:leaf=0.19051
		6:[f9584<0.0350455] yes=13,no=14,missing=13
			13:leaf=-0.260328
			14:leaf=0.0133877
booster[36]:
0:[f13153<0.0335289] yes=1,no=2,missing=1
	1:[f20292<0.0126028] yes=3,no=4,missing=3
		3:[f23672<0.0501621] yes=7,no=8,missing=7
			7:[f20717<0.0325346] yes=15,no=16,missing=15
				15:[f22435<0.0123926] yes=23,no=24,missing=23
					23:[f29288<0.039328] yes=37,no=38,missing=37
						37:leaf=0.132263
						38:leaf=-0.100461
					24:[f624<0.0589317] yes=39,no=40,missing=39
						39:leaf=-0.160794
						40:leaf=0.392967
				16:[f3983<0.0633749] yes=25,no=26,missing=25
					25:[f15687<0.054488] yes=41,no=42,missing=41
						41:leaf=-0.0893107
						42:leaf=0.471648
					26:[f4585<0.0158499] yes=43,no=44,missing=43
						43:leaf=0.0222812
						44:leaf=0.834971
			8:[f20228<0.0785936] yes=17,no=18,missing=17
				17:[f27577<0.106161] yes=27,no=28,missing=27
					27:[f15621<0.0805735] yes=45,no=46,missing=45
						45:leaf=-0.178491
						46:leaf=0.322924
					28:[f4585<0.0791715] yes=47,no=48,missing=47
						47:leaf=0.8091
						48:leaf=-0.157077
				18:[f655<0.0578344] yes=29,no=30,missing=29
					29:[f3934<0.0424048] yes=49,no=50,missing=49
						49:leaf=-0.14612
						50:leaf=0.113073
					30:leaf=0.848011
		4:[f909<0.0460652] yes=9,no=10,missing=9
			9:[f23236<0.0672118] yes=19,no=20,missing=19
				19:[f19134<0.0244183] yes=31,no=32,missing=31
					31:[f5815<0.0771277] yes=51,no=52,missing=51
						51:leaf=0.509564
						52:leaf=-0.0564075
					32:leaf=-0.069029
				20:leaf=-0.196242
			10:leaf=-0.273081
	2:[f14974<0.0861274] yes=5,no=6,missing=5
		5:[f28881<0.0523962] yes=11,no=12,missing=11
			11:[f19959<0.0819016] yes=21,no=22,missing=21
				21:[f14930<0.175224] yes=33,no=34,missing=33
					33:[f11696<0.0940332] yes=53,no=54,missing=53
						53:leaf=-0.0828258
						54:leaf=0.657789
					34:leaf=0.649722
				22:[f3934<0.0398375] yes=35,no=36,missing=35
					35:[f14711<0.024503] yes=55,no=56,missing=55
						55:leaf=0.936938
						56:leaf=0.0471201
					36:leaf=-0.191114
			12:leaf=0.694246
		6:[f24407<0.0338165] yes=13,no=14,missing=13
			13:leaf=0.82046
			14:leaf=0.0856563
booster[37]:
0:[f14915<0.0716722] yes=1,no=2,missing=1
	1:[f26318<0.0589757] yes=3,no=4,missing=3
		3:[f12316<0.13903] yes=7,no=8,missing=7
			7:[f2888<0.0553854] yes=15,no=16,missing=15
				15:[f14164<0.0918759] yes=27,no=28,missing=27
					27:[f18603<0.0897894] yes=43,no=44,missing=43
						43:leaf=0.0606638
						44:leaf=0.517215
					28:[f15752<0.0318998] yes=45,no=46,missing=45
						45:leaf=0.370369
						46:leaf=0.0827447
				16:[f2219<0.121319] yes=29,no=30,missing=29
					29:[f2243<0.125085] yes=47,no=48,missing=47
						47:leaf=-0.0831248
						48:leaf=0.665957
					30:[f26981<0.0208695] yes=49,no=50,missing=49
						49:leaf=0.69718
						50:leaf=0.187796
			8:[f13802<0.0655355] yes=17,no=18,missing=17
				17:[f6818<0.125967] yes=31,no=32,missing=31
					31:[f12051<0.0215588] yes=51,no=52,missing=51
						51:leaf=0.329813
						52:leaf=-0.185046
					32:[f6818<0.161504] yes=53,no=54,missing=53
						53:leaf=-0.279162
						54:leaf=0.095768
				18:[f24407<0.0491789] yes=33,no=34,missing=33
					33:leaf=-0.338619
					34:leaf=0.263424
		4:[f6818<0.159866] yes=9,no=10,missing=9
			9:[f13259<0.0650224] yes=19,no=20,missing=19
				19:[f23025<0.0738566] yes=35,no=36,missing=35
					35:[f14643<0.0352041] yes=55,no=56,missing=55
						55:leaf=0.42332
						56:leaf=-0.186209
					36:[f26318<0.0909646] yes=57,no=58,missing=57
						57:leaf=-0.11993
						58:leaf=0.188236
				20:leaf=-0.268752
			10:leaf=-0.277902
	2:[f4585<0.0363109] yes=5,no=6,missing=5
		5:[f6496<0.131518] yes=11,no=12,missing=11
			11:[f16217<0.0187763] yes=21,no=22,missing=21
				21:[f12051<0.122649] yes=37,no=38,missing=37
					37:[f4060<0.100678] yes=59,no=60,missing=59
						59:leaf=0.0871765
						60:leaf=-0.21357
					38:[f8705<0.0258447] yes=61,no=62,missing=61
						61:leaf=0.585687
						62:leaf=-0.193182
				22:[f20779<0.0235914] yes=39,no=40,missing=39
					39:[f23025<0.0747418] yes=63,no=64,missing=63
						63:leaf=0.287987
						64:leaf=-0.271751
					40:leaf=0.89317
			12:leaf=0.848862
		6:[f25756<0.0887436] yes=13,no=14,missing=13
			13:[f4022<0.076156] yes=23,no=24,missing=23
				23:[f13814<0.0192593] yes=41,no=42,missing=41
					41:[f24221<0.0957996] yes=65,no=66,missing=65
						65:leaf=0.369813
						66:leaf=-0.0942351
					42:leaf=-0.211143
				24:leaf=0.962846
			14:[f25756<0.257964] yes=25,no=26,missing=25
				25:leaf=1.15874
				26:leaf=0.287949
booster[38]:
0:[f11935<0.0758733] yes=1,no=2,missing=1
	1:[f11937<0.118409] yes=3,no=4,missing=3
		3:[f27635<0.0810973] yes=7,no=8,missing=7
			7:[f11940<0.0302644] yes=15,no=16,missing=15
				15:[f4022<0.0579406] yes=25,no=26,missing=25
					25:[f4060<0.128067] yes=39,no=40,missing=39
						39:leaf=-0.126773
						40:leaf=0.153153
					26:[f16347<0.0990478] yes=41,no=42,missing=41
						41:leaf=0.133345
						42:leaf=0.770896
				16:[f655<0.027017] yes=27,no=28,missing=27
					27:[f31854<0.0284044] yes=43,no=44,missing=43
						43:leaf=-0.0118109
						44:leaf=0.483271
					28:[f12944<0.0331421] yes=45,no=46,missing=45
						45:leaf=0.696954
						46:leaf=-0.143329
			8:[f3934<0.0154274] yes=17,no=18,missing=17
				17:[f14915<0.0579993] yes=29,no=30,missing=29
					29:[f655<0.0924192] yes=47,no=48,missing=47
						47:leaf=-0.0326146
						48:leaf=0.478046
					30:[f27635<0.238498] yes=49,no=50,missing=49
						49:leaf=0.864695
						50:leaf=0.0436155
				18:[f30223<0.0424095] yes=31,no=32,missing=31
					31:leaf=0.94959
					32:leaf=0.0314237
		4:[f15709<0.036854] yes=9,no=10,missing=9
			9:leaf=1.20147
			10:leaf=0.307167
	2:[f30144<0.0428491] yes=5,no=6,missing=5
		5:[f19699<0.111766] yes=11,no=12,missing=11
			11:[f14916<0.0882225] yes=19,no=20,missing=19
				19:[f2132<0.0496048] yes=33,no=34,missing=33
					33:[f11898<0.031566] yes=51,no=52,missing=51
						51:leaf=0.131092
						52:leaf=-0.177551
					34:[f11935<0.208402] yes=53,no=54,missing=53
						53:leaf=-0.229379
						54:leaf=0.07101
				20:leaf=0.409183
			12:[f16274<0.0406443] yes=21,no=22,missing=21
				21:[f12017<0.109132] yes=35,no=36,missing=35
					35:[f3574<0.111746] yes=55,no=56,missing=55
						55:leaf=0.40319
						56:leaf=0.106622
					36:leaf=0.043571
				22:leaf=-0.0187595
		6:[f31854<0.03566] yes=13,no=14,missing=13
			13:[f30171<0.069868] yes=23,no=24,missing=23
				23:[f6447<0.0786017] yes=37,no=38,missing=37
					37:leaf=0.469749
					38:leaf=0.103196
				24:leaf=0.0084631
			14:leaf=-0.0541862
booster[39]:
0:[f24263<0.068713] yes=1,no=2,missing=1
	1:[f17723<0.0980909] yes=3,no=4,missing=3
		3:[f14587<0.0835295] yes=7,no=8,missing=7
			7:[f11212<0.0338199] yes=15,no=16,missing=15
				15:[f15447<0.0510811] yes=25,no=26,missing=25
					25:[f3864<0.0818791] yes=35,no=36,missing=35
						35:leaf=0.0463993
						36:leaf=0.321097
					26:[f13814<0.123852] yes=37,no=38,missing=37
						37:leaf=0.168978
						38:leaf=0.579676
				16:[f26954<0.0331949] yes=27,no=28,missing=27
					27:[f8142<0.102522] yes=39,no=40,missing=39
						39:leaf=0.695682
						40:leaf=-0.0591168
					28:[f2065<0.0807917] yes=41,no=42,missing=41
						41:leaf=-0.147025
						42:leaf=0.0710545
			8:[f32072<0.0380951] yes=17,no=18,missing=17
				17:[f14420<0.034531] yes=29,no=30,missing=29
					29:[f6818<0.136351] yes=43,no=44,missing=43
						43:leaf=0.36473
						44:leaf=-0.0432666
					30:leaf=-0.219836
				18:leaf=-0.219473
		4:[f14711<0.0618294] yes=9,no=10,missing=9
			9:[f14317<0.0556177] yes=19,no=20,missing=19
				19:[f2298<0.0398446] yes=31,no=32,missing=31
					31:[f15181<0.0867795] yes=45,no=46,missing=45
						45:leaf=0.765174
						46:leaf=0.177491
					32:leaf=0.12181
				20:leaf=0.0164429
			10:[f9778<0.0448702] yes=21,no=22,missing=21
				21:leaf=0.27321
				22:leaf=-0.142427
	2:[f22435<0.0316394] yes=5,no=6,missing=5
		5:[f5863<0.0647369] yes=11,no=12,missing=11
			11:[f2219<0.0350729] yes=23,no=24,missing=23
				23:[f26426<0.0531984] yes=33,no=34,missing=33
					33:[f25716<0.0230413] yes=47,no=48,missing=47
						47:leaf=0.916561
						48:leaf=0.0813201
					34:leaf=0.0456224
				24:leaf=0.0335151
			12:leaf=-0.039883
		6:[f14753<0.0426662] yes=13,no=14,missing=13
			13:leaf=-0.0734666
			14:leaf=0.0467079
booster[40]:
0:[f19132<0.0297378] yes=1,no=2,missing=1
	1:[f11380<0.200821] yes=3,no=4,missing=3
		3:[f15733<0.0540097] yes=7,no=8,missing=7
			7:[f13663<0.0819435] yes=11,no=12,missing=11
				11:[f30540<0.0699753] yes=17,no=18,missing=17
					17:[f15052<0.119498] yes=29,no=30,missing=29
						29:leaf=-0.0603752
						30:leaf=0.743256
					18:[f2269<0.0575184] yes=31,no=32,missing=31
						31:leaf=0.200955
						32:leaf=-0.225593
				12:[f13663<0.204887] yes=19,no=20,missing=19
					19:leaf=0.902528
					20:leaf=0.193709
			8:[f26981<0.0833147] yes=13,no=14,missing=13
				13:[f26426<0.062007] yes=21,no=22,missing=21
					21:[f23420<0.168894] yes=33,no=34,missing=33
						33:leaf=0.143778
						34:leaf=0.718226
					22:[f4585<0.0647987] yes=35,no=36,missing=35
						35:leaf=0.159114
						36:leaf=1.05063
				14:[f23449<0.0986316] yes=23,no=24,missing=23
					23:leaf=-0.251787
					24:leaf=0.362346
		4:leaf=1.05059
	2:[f2430<0.0784238] yes=5,no=6,missing=5
		5:[f15447<0.0354956] yes=9,no=10,missing=9
			9:[f30066<0.0583179] yes=15,no=16,missing=15
				15:[f5856<0.0267241] yes=25,no=26,missing=25
					25:[f25716<0.0157953] yes=37,no=38,missing=37
						37:leaf=0.40686
						38:leaf=-0.0893834
					26:leaf=-0.188932
				16:[f13153<0.0296008] yes=27,no=28,missing=27
					27:leaf=-0.214583
					28:leaf=0.0718366
			10:leaf=-0.220133
		6:leaf=1.0017
booster[41]:
0:[f23235<0.0303695] yes=1,no=2,missing=1
	1:[f13438<0.104909] yes=3,no=4,missing=3
		3:[f19289<0.091365] yes=7,no=8,missing=7
			7:[f8172<0.0227852] yes=15,no=16,missing=15
				15:[f20866<0.100651] yes=25,no=26,missing=25
					25:[f9555<0.19303] yes=33,no=34,missing=33
						33:leaf=-0.12627
						34:leaf=0.941208
					26:[f22439<0.0500738] yes=35,no=36,missing=35
						35:leaf=0.658153
						36:leaf=0.200715
				16:[f12558<0.0327244] yes=27,no=28,missing=27
					27:[f23025<0.0148367] yes=37,no=38,missing=37
						37:leaf=0.217418
						38:leaf=-0.167614
					28:leaf=0.817939
			8:[f14916<0.0184961] yes=17,no=18,missing=17
				17:[f26981<0.0301386] yes=29,no=30,missing=29
					29:leaf=0.257894
					30:leaf=1.03031
				18:leaf=-0.147046
		4:[f24407<0.0395006] yes=9,no=10,missing=9
			9:[f12944<0.027293] yes=19,no=20,missing=19
				19:leaf=1.14576
				20:leaf=0.0563223
			10:leaf=0.0140223
	2:[f19129<0.0423265] yes=5,no=6,missing=5
		5:[f13315<0.0476571] yes=11,no=12,missing=11
			11:[f16596<0.0224521] yes=21,no=22,missing=21
				21:[f8479<0.0448302] yes=31,no=32,missing=31
					31:[f1200<0.0873437] yes=39,no=40,missing=39
						39:leaf=0.202861
						40:leaf=-0.190768
					32:[f9977<0.0725312] yes=41,no=42,missing=41
						41:leaf=-0.235801
						42:leaf=0.163664
				22:leaf=-0.225266
			12:leaf=-0.230937
		6:[f20717<0.0579116] yes=13,no=14,missing=13
			13:leaf=-0.251951
			14:[f2065<0.0196199] yes=23,no=24,missing=23
				23:leaf=0.347375
				24:leaf=0.0481147
booster[42]:
0:[f4060<0.150184] yes=1,no=2,missing=1
	1:[f24208<0.0700184] yes=3,no=4,missing=3
		3:[f28254<0.0676027] yes=7,no=8,missing=7
			7:[f8235<0.0689523] yes=15,no=16,missing=15
				15:[f11778<0.159497] yes=27,no=28,missing=27
					27:[f16047<0.144164] yes=43,no=44,missing=43
						43:leaf=-0.131968
						44:leaf=0.591989
					28:[f8533<0.0141194] yes=45,no=46,missing=45
						45:leaf=0.10297
						46:leaf=0.994948
				16:[f6818<0.0174751] yes=29,no=30,missing=29
					29:[f28067<0.0280921] yes=47,no=48,missing=47
						47:leaf=0.217876
						48:leaf=-0.210768
					30:[f16347<0.0481298] yes=49,no=50,missing=49
						49:leaf=0.739105
						50:leaf=0.0641289
			8:[f19465<0.0619914] yes=17,no=18,missing=17
				17:[f26981<0.159795] yes=31,no=32,missing=31
					31:[f19699<0.0181924] yes=51,no=52,missing=51
						51:leaf=0.159549
						52:leaf=-0.0901545
					32:[f4060<0.0196745] yes=53,no=54,missing=53
						53:leaf=-0.24275
						54:leaf=0.0960891
				18:[f13315<0.0747301] yes=33,no=34,missing=33
					33:leaf=-0.257816
					34:leaf=0.0774145
		4:[f30021<0.0422494] yes=9,no=10,missing=9
			9:[f30144<0.0821492] yes=19,no=20,missing=19
				19:[f15752<0.0582653] yes=35,no=36,missing=35
					35:[f9584<0.0168536] yes=55,no=56,missing=55
						55:leaf=0.62734
						56:leaf=0.0660074
					36:leaf=-0.143271
				20:leaf=-0.153822
			10:leaf=-0.198341
	2:[f655<0.0274217] yes=5,no=6,missing=5
		5:[f26981<0.0434443] yes=11,no=12,missing=11
			11:[f30144<0.0611941] yes=21,no=22,missing=21
				21:[f12316<0.0449735] yes=37,no=38,missing=37
					37:[f30021<0.0645092] yes=57,no=58,missing=57
						57:leaf=0.743482
						58:leaf=0.00886144
					38:leaf=-0.144989
				22:leaf=-0.147717
			12:[f29490<0.036999] yes=23,no=24,missing=23
				23:[f11632<0.0445174] yes=39,no=40,missing=39
					39:[f28067<0.112619] yes=59,no=60,missing=59
						59:leaf=-0.229541
						60:leaf=0.108262
					40:leaf=0.318712
				24:leaf=0.69132
		6:[f28367<0.0382306] yes=13,no=14,missing=13
			13:[f28067<0.178723] yes=25,no=26,missing=25
				25:[f28254<0.176436] yes=41,no=42,missing=41
					41:leaf=-0.247595
					42:leaf=0.279107
				26:leaf=0.32741
			14:leaf=0.447188
booster[43]:
0:[f26981<0.117054] yes=1,no=2,missing=1
	1:[f26954<0.0576473] yes=3,no=4,missing=3
		3:[f8951<0.05955] yes=7,no=8,missing=7
			7:[f6818<0.0759451] yes=13,no=14,missing=13
				13:[f15854<0.140098] yes=25,no=26,missing=25
					25:[f27000<0.29015] yes=45,no=46,missing=45
						45:leaf=-0.081031
						46:leaf=0.868508
					26:[f15854<0.266069] yes=47,no=48,missing=47
						47:leaf=1.0685
						48:leaf=0.100029
				14:[f12316<0.0481994] yes=27,no=28,missing=27
					27:[f1104<0.0675976] yes=49,no=50,missing=49
						49:leaf=-0.00736509
						50:leaf=0.423172
					28:[f12316<0.210826] yes=51,no=52,missing=51
						51:leaf=0.57552
						52:leaf=-0.195654
			8:[f30068<0.0457855] yes=15,no=16,missing=15
				15:[f6818<0.061794] yes=29,no=30,missing=29
					29:[f7821<0.16568] yes=53,no=54,missing=53
						53:leaf=0.24003
						54:leaf=-0.193038
					30:leaf=-0.217553
				16:[f30144<0.0370633] yes=31,no=32,missing=31
					31:[f24407<0.0127328] yes=55,no=56,missing=55
						55:leaf=0.201295
						56:leaf=0.981447
					32:leaf=0.13781
		4:[f30066<0.0154082] yes=9,no=10,missing=9
			9:[f26944<0.077712] yes=17,no=18,missing=17
				17:[f8958<0.0515687] yes=33,no=34,missing=33
					33:[f28665<0.059152] yes=57,no=58,missing=57
						57:leaf=0.0573425
						58:leaf=0.311935
					34:leaf=-0.247972
				18:[f9123<0.0521766] yes=35,no=36,missing=35
					35:[f14285<0.0591712] yes=59,no=60,missing=59
						59:leaf=0.409255
						60:leaf=-0.0235334
					36:leaf=-0.0263911
			10:[f19503<0.0302565] yes=19,no=20,missing=19
				19:[f26327<0.0477327] yes=37,no=38,missing=37
					37:[f15752<0.0277538] yes=61,no=62,missing=61
						61:leaf=0.523417
						62:leaf=0.192932
					38:[f1779<0.0234681] yes=63,no=64,missing=63
						63:leaf=-0.168796
						64:leaf=0.0497056
				20:leaf=-0.184779
	2:[f5182<0.16327] yes=5,no=6,missing=5
		5:[f30068<0.0823213] yes=11,no=12,missing=11
			11:[f2296<0.135512] yes=21,no=22,missing=21
				21:[f10747<0.0777352] yes=39,no=40,missing=39
					39:[f24208<0.0974447] yes=65,no=66,missing=65
						65:leaf=0.0881482
						66:leaf=0.721907
					40:[f26981<0.154902] yes=67,no=68,missing=67
						67:leaf=0.969626
						68:leaf=0.0516869
				22:[f15752<0.0442145] yes=41,no=42,missing=41
					41:leaf=0.865488
					42:leaf=0.244381
			12:[f28067<0.0557022] yes=23,no=24,missing=23
				23:[f13153<0.0520675] yes=43,no=44,missing=43
					43:leaf=-0.19547
					44:leaf=0.501787
				24:leaf=1.0608
		6:leaf=0.849257
booster[44]:
0:[f14042<0.0229299] yes=1,no=2,missing=1
	1:[f17657<0.103155] yes=3,no=4,missing=3
		3:[f18174<0.075712] yes=7,no=8,missing=7
			7:[f16433<0.154241] yes=13,no=14,missing=13
				13:[f13603<0.352887] yes=23,no=24,missing=23
					23:[f20605<0.0399603] yes=33,no=34,missing=33
						33:leaf=-0.096337
						34:leaf=0.743549
					24:leaf=0.845895
				14:[f655<0.0111577] yes=25,no=26,missing=25
					25:[f28067<0.0343199] yes=35,no=36,missing=35
						35:leaf=0.679696
						36:leaf=0.0118885
					26:[f18964<0.0561061] yes=37,no=38,missing=37
						37:leaf=-0.201544
						38:leaf=0.348163
			8:[f15733<0.106476] yes=15,no=16,missing=15
				15:[f21239<0.0284382] yes=27,no=28,missing=27
					27:[f16217<0.0477294] yes=39,no=40,missing=39
						39:leaf=0.155954
						40:leaf=0.761795
					28:[f31486<0.0521743] yes=41,no=42,missing=41
						41:leaf=-0.219195
						42:leaf=0.311252
				16:leaf=0.870469
		4:[f6818<0.0206987] yes=9,no=10,missing=9
			9:[f26981<0.130466] yes=17,no=18,missing=17
				17:[f700<0.0299987] yes=29,no=30,missing=29
					29:leaf=1.016
					30:leaf=0.24728
				18:leaf=0.0995852
			10:leaf=-0.140262
	2:[f3007<0.0746453] yes=5,no=6,missing=5
		5:[f19026<0.0495056] yes=11,no=12,missing=11
			11:[f12409<0.121323] yes=19,no=20,missing=19
				19:[f30022<0.0797416] yes=31,no=32,missing=31
					31:[f12316<0.0932969] yes=43,no=44,missing=43
						43:leaf=0.464868
						44:leaf=0.0115594
					32:leaf=-0.0370232
				20:leaf=-0.167868
			12:[f21239<0.0145896] yes=21,no=22,missing=21
				21:leaf=-0.189343
				22:leaf=0.056074
		6:leaf=-0.211623
booster[45]:
0:[f18267<0.0752119] yes=1,no=2,missing=1
	1:[f23961<0.088948] yes=3,no=4,missing=3
		3:[f23449<0.0953988] yes=7,no=8,missing=7
			7:[f11845<0.0790562] yes=13,no=14,missing=13
				13:[f15181<0.192471] yes=21,no=22,missing=21
					21:[f24258<0.173614] yes=31,no=32,missing=31
						31:leaf=-0.116711
						32:leaf=0.761172
					22:[f17054<0.0285026] yes=33,no=34,missing=33
						33:leaf=0.157387
						34:leaf=1.0632
				14:[f1024<0.0224681] yes=23,no=24,missing=23
					23:[f8584<0.047009] yes=35,no=36,missing=35
						35:leaf=0.36219
						36:leaf=-0.0904963
					24:[f655<0.0487106] yes=37,no=38,missing=37
						37:leaf=-0.182676
						38:leaf=0.0639789
			8:[f23449<0.0971134] yes=15,no=16,missing=15
				15:leaf=0.939759
				16:[f6526<0.104082] yes=25,no=26,missing=25
					25:[f12944<0.0544882] yes=39,no=40,missing=39
						39:leaf=-0.00653036
						40:leaf=0.405325
					26:[f6526<0.229079] yes=41,no=42,missing=41
						41:leaf=0.776267
						42:leaf=0.208763
		4:[f7124<0.0720151] yes=9,no=10,missing=9
			9:[f26426<0.0266458] yes=17,no=18,missing=17
				17:[f6481<0.0606383] yes=27,no=28,missing=27
					27:[f2132<0.0467865] yes=43,no=44,missing=43
						43:leaf=-0.0263564
						44:leaf=0.479134
					28:leaf=0.636105
				18:leaf=0.767122
			10:leaf=0.974761
	2:[f30790<0.0627328] yes=5,no=6,missing=5
		5:[f19846<0.0887406] yes=11,no=12,missing=11
			11:[f18267<0.329799] yes=19,no=20,missing=19
				19:[f655<0.0625873] yes=29,no=30,missing=29
					29:[f2114<0.0649484] yes=45,no=46,missing=45
						45:leaf=-0.0990186
						46:leaf=0.335161
					30:[f26981<0.079829] yes=47,no=48,missing=47
						47:leaf=0.599877
						48:leaf=-0.138443
				20:leaf=0.656943
			12:leaf=0.825191
		6:leaf=0.834455
booster[46]:
0:[f22369<0.0715183] yes=1,no=2,missing=1
	1:[f14353<0.0740291] yes=3,no=4,missing=3
		3:[f11552<0.0311835] yes=7,no=8,missing=7
			7:[f21098<0.103048] yes=13,no=14,missing=13
				13:[f27146<0.287861] yes=23,no=24,missing=23
					23:[f22040<0.113787] yes=39,no=40,missing=39
						39:leaf=-0.2201
						40:leaf=0.346108
					24:leaf=0.390095
				14:[f655<0.0285953] yes=25,no=26,missing=25
					25:[f21098<0.13449] yes=41,no=42,missing=41
						41:leaf=0.105642
						42:leaf=-0.166327
					26:leaf=0.47691
			8:[f5856<0.0370632] yes=15,no=16,missing=15
				15:[f14164<0.0270825] yes=27,no=28,missing=27
					27:[f4585<0.0153121] yes=43,no=44,missing=43
						43:leaf=0.100886
						44:leaf=-0.230491
					28:leaf=0.401329
				16:leaf=0.441031
		4:[f14916<0.0502286] yes=9,no=10,missing=9
			9:[f655<0.0137943] yes=17,no=18,missing=17
				17:[f22723<0.0666112] yes=29,no=30,missing=29
					29:leaf=-0.236114
					30:[f24407<0.0149642] yes=45,no=46,missing=45
						45:leaf=0.331456
						46:leaf=-0.147721
				18:[f4060<0.0229579] yes=31,no=32,missing=31
					31:[f24407<0.0342865] yes=47,no=48,missing=47
						47:leaf=0.345894
						48:leaf=-0.0376661
					32:leaf=-0.187177
			10:[f16217<0.0608378] yes=19,no=20,missing=19
				19:[f28665<0.0287726] yes=33,no=34,missing=33
					33:leaf=0.499911
					34:leaf=0.0329111
				20:leaf=-0.147593
	2:[f19026<0.0519968] yes=5,no=6,missing=5
		5:[f4585<0.0635199] yes=11,no=12,missing=11
			11:[f15752<0.0448508] yes=21,no=22,missing=21
				21:[f13802<0.0211535] yes=35,no=36,missing=35
					35:[f8564<0.0407265] yes=49,no=50,missing=49
						49:leaf=0.402485
						50:leaf=-0.00345417
					36:leaf=-0.175939
				22:[f30066<0.0646041] yes=37,no=38,missing=37
					37:[f13259<0.0623565] yes=51,no=52,missing=51
						51:leaf=-0.218525
						52:leaf=0.09375
					38:leaf=0.320478
			12:leaf=-0.187727
		6:leaf=-0.201884
booster[47]:
0:[f27032<0.0661864] yes=1,no=2,missing=1
	1:[f19908<0.0391684] yes=3,no=4,missing=3
		3:[f27040<0.0796987] yes=7,no=8,missing=7
			7:[f20593<0.0911891] yes=13,no=14,missing=13
				13:[f14868<0.110823] yes=23,no=24,missing=23
					23:[f21598<0.050996] yes=35,no=36,missing=35
						35:leaf=-0.206595
						36:leaf=0.0186952
					24:[f28067<0.0142256] yes=37,no=38,missing=37
						37:leaf=0.721568
						38:leaf=-0.0592968
				14:[f24407<0.0301973] yes=25,no=26,missing=25
					25:[f23198<0.0361843] yes=39,no=40,missing=39
						39:leaf=0.607473
						40:leaf=0.0346863
					26:leaf=-0.138696
			8:[f655<0.0292668] yes=15,no=16,missing=15
				15:[f13802<0.067639] yes=27,no=28,missing=27
					27:[f22439<0.0373485] yes=41,no=42,missing=41
						41:leaf=0.358946
						42:leaf=-0.0494629
					28:leaf=-0.173361
				16:leaf=-0.185484
		4:leaf=0.727134
	2:[f19699<0.0447951] yes=5,no=6,missing=5
		5:[f2132<0.0454289] yes=9,no=10,missing=9
			9:[f6818<0.036348] yes=17,no=18,missing=17
				17:[f8564<0.0489347] yes=29,no=30,missing=29
					29:[f24221<0.0933027] yes=43,no=44,missing=43
						43:leaf=0.211125
						44:leaf=0.595633
					30:[f20704<0.0642196] yes=45,no=46,missing=45
						45:leaf=-0.25682
						46:leaf=0.273137
				18:[f20704<0.0626793] yes=31,no=32,missing=31
					31:[f19465<0.069932] yes=47,no=48,missing=47
						47:leaf=-0.18542
						48:leaf=0.27198
					32:leaf=0.272103
			10:[f18964<0.0508855] yes=19,no=20,missing=19
				19:leaf=-0.259206
				20:leaf=0.050596
		6:[f19129<0.0526181] yes=11,no=12,missing=11
			11:[f9833<0.0493119] yes=21,no=22,missing=21
				21:[f2888<0.0652168] yes=33,no=34,missing=33
					33:leaf=0.52783
					34:leaf=0.151246
				22:leaf=0.0504739
			12:leaf=-0.0390156
booster[48]:
0:[f7821<0.0485098] yes=1,no=2,missing=1
	1:[f20284<0.0265201] yes=3,no=4,missing=3
		3:[f14645<0.100057] yes=7,no=8,missing=7
			7:[f9312<0.0273495] yes=13,no=14,missing=13
				13:[f28112<0.0181089] yes=21,no=22,missing=21
					21:[f14634<0.13298] yes=33,no=34,missing=33
						33:leaf=0.0358031
						34:leaf=0.286095
					22:leaf=0.450897
				14:[f14916<0.0702424] yes=23,no=24,missing=23
					23:[f14285<0.0805842] yes=35,no=36,missing=35
						35:leaf=0.344596
						36:leaf=-0.133407
					24:[f30066<0.0354777] yes=37,no=38,missing=37
						37:leaf=-0.216898
						38:leaf=0.134166
			8:[f8564<0.0185514] yes=15,no=16,missing=15
				15:[f4585<0.0228875] yes=25,no=26,missing=25
					25:[f32593<0.0644287] yes=39,no=40,missing=39
						39:leaf=0.477991
						40:leaf=-0.0261312
					26:[f3934<0.0705505] yes=41,no=42,missing=41
						41:leaf=-0.121382
						42:leaf=0.419759
				16:[f26981<0.0409789] yes=27,no=28,missing=27
					27:leaf=0.142031
					28:[f1104<0.0379117] yes=43,no=44,missing=43
						43:leaf=-0.322993
						44:leaf=0.0272639
		4:[f13135<0.0340481] yes=9,no=10,missing=9
			9:[f24407<0.086555] yes=17,no=18,missing=17
				17:[f23236<0.031732] yes=29,no=30,missing=29
					29:[f2480<0.0365089] yes=45,no=46,missing=45
						45:leaf=0.495112
						46:leaf=-0.0408397
					30:leaf=-0.080606
				18:leaf=-0.063642
			10:leaf=-0.261215
	2:[f18609<0.0369039] yes=5,no=6,missing=5
		5:[f18257<0.105231] yes=11,no=12,missing=11
			11:[f11491<0.09541] yes=19,no=20,missing=19
				19:[f20814<0.0426994] yes=31,no=32,missing=31
					31:[f15611<0.116614] yes=47,no=48,missing=47
						47:leaf=-0.196922
						48:leaf=0.341091
					32:[f18964<0.0704046] yes=49,no=50,missing=49
						49:leaf=-0.179356
						50:leaf=0.841959
				20:leaf=0.558707
			12:leaf=0.501588
		6:leaf=0.575866
booster[49]:
0:[f15266<0.0888702] yes=1,no=2,missing=1
	1:[f1987<0.159648] yes=3,no=4,missing=3
		3:[f22809<0.0476536] yes=7,no=8,missing=7
			7:[f22437<0.222934] yes=13,no=14,missing=13
				13:[f26307<0.184116] yes=23,no=24,missing=23
					23:[f16069<0.107866] yes=37,no=38,missing=37
						37:leaf=0.0391421
						38:leaf=0.341304
					24:[f11632<0.0205688] yes=39,no=40,missing=39
						39:leaf=0.660363
						40:leaf=-0.194656
				14:[f16835<0.1909] yes=25,no=26,missing=25
					25:[f15181<0.0381136] yes=41,no=42,missing=41
						41:leaf=1.04983
						42:leaf=0.278298
					26:[f15752<0.0263062] yes=43,no=44,missing=43
						43:leaf=0.101342
						44:leaf=-0.0495862
			8:[f12017<0.0477533] yes=15,no=16,missing=15
				15:[f15733<0.0574227] yes=27,no=28,missing=27
					27:[f1840<0.0546916] yes=45,no=46,missing=45
						45:leaf=0.210925
						46:leaf=0.521782
					28:[f18964<0.0498798] yes=47,no=48,missing=47
						47:leaf=-0.271558
						48:leaf=0.0988909
				16:[f26201<0.0649311] yes=29,no=30,missing=29
					29:[f1658<0.0300538] yes=49,no=50,missing=49
						49:leaf=-0.263857
						50:leaf=0.210529
					30:[f22439<0.0220653] yes=51,no=52,missing=51
						51:leaf=0.376959
						52:leaf=-0.0147382
		4:[f21239<0.0832114] yes=9,no=10,missing=9
			9:[f22435<0.0320042] yes=17,no=18,missing=17
				17:leaf=0.964115
				18:[f655<0.0293773] yes=31,no=32,missing=31
					31:leaf=0.350631
					32:leaf=0.0440922
			10:[f15181<0.0519955] yes=19,no=20,missing=19
				19:leaf=-0.169896
				20:leaf=0.144012
	2:[f5815<0.0280097] yes=5,no=6,missing=5
		5:[f23000<0.0277961] yes=11,no=12,missing=11
			11:[f24620<0.0823358] yes=21,no=22,missing=21
				21:[f1104<0.0515755] yes=33,no=34,missing=33
					33:[f2684<0.0594606] yes=53,no=54,missing=53
						53:leaf=0.841102
						54:leaf=0.198504
					34:leaf=0.219697
				22:[f9833<0.0723357] yes=35,no=36,missing=35
					35:[f6818<0.0697084] yes=55,no=56,missing=55
						55:leaf=0.458576
						56:leaf=0.12281
					36:leaf=0.00864402
			12:leaf=-0.0356222
		6:leaf=-0.192372
booster[50]:
0:[f19699<0.0423091] yes=1,no=2,missing=1
	1:[f5801<0.0604419] yes=3,no=4,missing=3
		3:[f11935<0.0829265] yes=7,no=8,missing=7
			7:[f11417<0.0832389] yes=15,no=16,missing=15
				15:[f15073<0.125825] yes=25,no=26,missing=25
					25:[f11709<0.0697046] yes=43,no=44,missing=43
						43:leaf=-0.132151
						44:leaf=0.380409
					26:leaf=0.590718
				16:[f7244<0.0605253] yes=27,no=28,missing=27
					27:[f28665<0.0395182] yes=45,no=46,missing=45
						45:leaf=-0.0120512
						46:leaf=0.494746
					28:leaf=0.853325
			8:[f19129<0.0540339] yes=17,no=18,missing=17
				17:[f1779<0.0791696] yes=29,no=30,missing=29
					29:[f11935<0.225549] yes=47,no=48,missing=47
						47:leaf=0.113584
						48:leaf=0.330565
					30:[f1964<0.020078] yes=49,no=50,missing=49
						49:leaf=-0.26897
						50:leaf=0.0560359
				18:leaf=-0.250002
